-0.097487256 0.19720846 -0.073584504 -0.030331073 -0.35153857 0.055612948 0.0066353614 0.20235063 -0.106508516 -0.17454697 0.18800938 0.10297843 -0.067504406 -0.025443034 -0.16276231 0.13449061 0.2401304 0.17272596 0.047908735 0.026197813 0.045228507 0.15813419 0.11506161 -0.044775065 -0.06793112 -0.31716412 -0.01321213 -0.023605494 0.19644877 0.23729673 0.2577918 0.05546628 -0.031832144 0.093918934 0.18449329 0.19026199 -0.061607674 0.1336704 -0.12620455 -0.077166885 -0.0027024117 0.034540143 0.0034010226 -0.30450508 0.039181117 0.11376916 -0.16506776 -0.08314717 -0.15936387 0.038790185 -0.21659796 -0.23125252 0.12904374 0.20829083 0.028133031 -0.1399928 -0.39031655 -0.23555231 -0.20593461 0.18680009 0.064751446 -0.29411227 -0.30983174 -0.165704 -0.1106676 0.426567 0.18945257 -0.18724664 -0.21434556 -0.06481569 0.11981813 0.14260189 0.0847049 -0.11814778 -0.20043342 0.017435588 -0.018206201 0.21916646 0.25347236 -0.042293075 0.09628887 0.21416952 0.24518627 0.2956786 0.15294711 0.21112384 0.07339441 -0.057373606 0.072562866 0.30626273 -0.158212 -0.16873053 -0.30912197 0.13185495 0.28040582 0.03280784 -0.1347347 0.018824618 0.030121006 -0.01846691 -0.048334252 0.1705252 0.0242906 -0.07655905 0.1998009 -0.09629614 0.01972898 0.2394508 -0.03249116 -0.097627446 0.2326738 0.21883243 0.15671699 0.048287258 -0.08939315 0.20701383 0.3292355 0.23416889 0.019877458 0.09065856 0.036326557 0.036763646 0.20197637 0.0005809527 -0.118090935 -0.22093393 -0.21725284 -0.36936027 -0.010621043 -0.10879921 -0.33624253 0.10078831 -0.08910448 0.06280293 -0.2062446 -0.02124865 -0.044089198 0.09574524 -0.106941536 0.0077705337 -0.19417673 0.028700402 0.07423277 0.0757697 0.12687841 -0.24339755 -0.24389058 0.075767346 0.25571284 0.24620165 0.1283883 0.39640984 -0.0069779987 0.41216952 0.19431962 -0.103719674 -0.45917967 -0.53770655 -0.40195596 -0.5351088 -0.0024991632 -0.020769417 0.40197518 0.57661515 -0.7566082 0.34627208 0.45202947 0.516303 0.34312722 -0.74201643 0.7347008 -0.18063305 0.43242842 0.3546699 -0.17192759 0.3062506 0.20226751 0.87350553 -0.5095609 -0.620283 -0.09859153 0.65189046 0.514003 -0.7103427 -0.5155833 0.729427 -0.10601025 -0.013133891 -0.056224898 -0.11505789 -0.0046752393 -0.07037108 0.0136784315 -0.093687855 -0.06154856 0.037429526 0.08574942 -0.10028661 -0.06966524 -0.055306733 0.10317281 -0.09673232 -0.08847651 0.0102171 0.017953068 -0.10217935 -0.03725855 0.060063034 0.06796014 -0.120979846 -0.10391523 0.17611659 0.1696565 -0.060309995 0.12518504 0.07760755 0.21882226 0.079579 -0.085278876 -0.0264138 0.11992159 0.075849906 -0.14992908 -0.09361271 -0.16118306 -0.12356782 -0.11323803 -0.18070102 -0.14730678 0.068422936 0.14888893 -0.020974021 -0.13606492 -0.056396723 0.24737036 0.24675591 0.1433158 -0.054452464 0.07116126 0.092419446 0.14824378 0.11608285 -0.09068097 0.01613601 -0.17916386 -0.016185394 0.14410272 0.035958756 -0.1776296 -0.016667405 0.0579202 0.23103943 0.039143562 0.054522753 0.12949629 0.24196179 -0.021341063 0.052198604 0.19312671 0.11591772 0.22909966 -0.06498686 -0.17703542 0.00870277 0.091889694 -0.07466154 -0.18015584 -0.025128597 0.14270942 0.093720555 0.23332694 -0.081649 0.050905988 0.06234565 -0.054086424 -0.018735241 -0.30101773 -0.011904557 -0.062462803 -0.27898303 -0.5294388 -0.16616525 -0.07181626 -0.16508327 0.11925964 0.13772993 -0.07320137 0.0072440156 0.033382986 0.09707372 -0.0048271543 0.1353922 -0.06716185 -0.042965587 -0.03753609 0.050276395 -0.062956475 0.074164875 0.12039366 0.15475094 0.38302207 0.17557408 0.2179441 0.17757368 0.28868517 0.081813484 0.14830506 -0.0011511896 0.18744573 0.11443303 -0.08540706 -0.054692492 -0.11960676 -0.00050345063 0.09314057 -0.114802666 -0.075248316 0.07873759 -0.12795472 0.12532188 -0.03247693 -0.124968074 0.053763777 -0.02020567 -0.0094879195 0.020334214 -0.06170146 0.04496415 -0.11228953 0.005517736 0.08356556 -0.051138356 -0.046433963 -0.12377361 0.0288589 -0.1194053 0.0004560611 0.25608924 0.11697592 -0.015513011 -0.09723981 -0.0028439618 0.15488382 0.18075064 0.034735806 -0.11308506 0.092373006 -0.051106073 0.06294015 -0.15057649 -0.13312134 -0.13284393 0.08451362 0.032390706 0.11195842 0.0022866796 0.034306392 0.05271466 0.17367677 0.2421113 0.099189766 -0.081008546 0.1076484 0.20677023 0.0073672035 -0.019240169 0.118342035 0.09990815 -0.018757638 0.058750775 0.26574376 -0.06915749 0.12256192 -0.11052399 -0.12359403 -0.14391461 -0.055415116 0.25877085 0.18390206 0.14864732 -0.0108054 -0.287733 -0.27958333 -0.053912554 -0.040799335 -0.09671262 -0.09424677 -0.011990404 0.10194671 0.14391401 0.20814727 -0.052693386 0.04333948 0.24956615 0.3499135 0.0047523133 0.12206088 -0.14974925 0.09662041 0.11368731 0.27198693 0.0013111847 -0.20203932 -0.22067216 -0.08686587 0.059068874 0.05972545 0.0954792 -0.020782677 -0.048027415 0.024385625 0.28889757 -0.009008844 0.1261101 -0.11780651 -0.03898859 0.27892256 0.084254846 0.06834955 0.059419334 0.050888475 -0.022399327 0.29337293 0.26355842 0.13271362 0.04216663 -0.07128148 -0.18594082 0.029009562 0.03040946 0.047614187 -0.19963782 -0.2713972 -0.08197671 -0.3502869 0.08120936 -0.0024379343 0.116216645 -0.012633398 0.0961753 -0.054780774 0.019395038 0.12785627 -0.05751501 0.013602421 -0.0052872896 -0.08071595 0.07941148 -0.048043787 -0.11776469 -0.11011023 -0.004846588 -0.09994645 0.08833584 0.08604787 -0.11004464 -0.026851155 -0.01997161 0.059800357 -0.09483996 0.040401727 0.075970285 -0.06806414 0.12883607 0.16880924 0.22794996 0.08460946 -0.048678506 0.20659815 0.08853493 -0.043791484 -0.05513606 0.08237007 0.0908386 -0.062149446 -0.13367926 -0.05294834 -0.016633604 -0.2061956 -0.04620938 -0.10720101 -0.11561353 -0.07702701 -0.04163258 0.050989572 0.05534358 0.11941886 -0.03492724 -0.038302414 -0.010287412 0.096755646 0.17232923 0.14872704 0.122145414 -0.019463165 -0.15511593 0.09403915 -0.12493096 0.13383414 -0.10738372 -0.14233671 -0.1373752 -0.21185586 -0.14766484 -0.13470834 0.111224614 0.24540092 0.12258579 0.18872339 0.17250319 -0.0018936321 0.12969534 0.03410387 -0.049777925 -0.36299887 0.068366624 0.1009681 -0.057792358 -0.123308234 -0.12543564 -0.007679937 0.07596284 0.110575244 0.28196007 0.11000957 -0.0626842 -0.08037915 0.27879375 0.14922312 0.16615391 -0.040617175 -0.123474084 -0.12845857 -0.20452891 -0.030728232 0.011640434 -0.05319315 0.11406683 0.025092253 0.09488103 -0.084165804 0.0668459 -0.03148096 -0.14313705 0.028791165 0.14010733 -0.14397863 -0.19065075 -0.3046373 0.117411055 0.2050521 0.30274364 0.119249314 0.16353326 0.2645213 -0.16850993 0.14310625 0.32797047 0.13393503 -0.011130073 -0.13129191 0.099472046 -0.09250894 -0.04770737 0.0332956 0.103985846 0.027981773 0.072393015 -0.11630817 -0.11325531 0.047870442 -0.005814418 -0.057878807 0.099767014 0.065375805 -0.06423785 -0.08174954 -0.0799066 0.09686543 0.067955375 0.02314949 0.0769639 -0.092003986 -0.09420423 0.04938534 -0.040714383 -0.088416494 -0.14835474 0.07858262 0.1560603 0.11414001 -0.1395309 -0.13064887 0.119350016 0.00051377557 0.008555522 0.16827121 0.12103089 -0.01741612 0.12707199 0.14037037 0.14620678 -0.030373137 0.013237293 0.15391949 0.14039947 0.1794877 0.11287358 0.09115667 -0.19132155 -0.09616311 0.01999248 -0.06041248 0.15383674 -0.029397368 0.08873474 0.07483477 -0.019606508 -0.107760936 0.068881795 0.00013179473 0.043261204 0.049217295 -0.07083513 0.27541184 0.20042576 0.024878182 0.041132603 -0.11341393 -0.051296834 0.0318661 0.011520618 -0.071803816 -0.13967566 -0.11728989 0.12991795 0.086539365 0.1804869 0.16116542 -0.19554454 -0.04811527 -0.01335526 0.21157531 0.25301442 0.11041931 -0.057743795 -0.064698376 -0.005448268 0.053203695 -0.102423206 -0.18869595 -0.0038936737 0.039264858 0.2799886 0.34003046 0.11131284 0.07282122 -0.043173324 -0.0022049742 0.16965105 0.047506686 0.03183855 -0.056469105 -0.054533083 -0.039391104 0.014793779 -0.067585394 0.20237789 0.087084904 0.09827004 0.19288853 0.16386434 -0.035797 0.040025197 0.1386403 -0.1903474 -0.07979316 0.11322347 -0.11911969 -0.29908186 0.090767585 0.019434765 0.20242131 -0.036293164 0.12206648 0.035999082 0.12957175 -0.050229028 -0.08324328 -0.0014116317 -0.11942665 -0.07307026 0.1076207 -0.105511695 0.0678772 0.008878797 -0.07596132 0.09088813 -0.0023493767 -0.012340002 0.09854852 0.11621396 -0.00088329613 -0.01579877 -0.09643708 -0.097017735 -0.038491473 -0.053924352 0.098358944 0.012335658 0.047195077 -0.25543898 0.08414487 0.071128145 0.14330217 0.050082482 0.085768476 -0.14581771 -0.09116845 0.06741663 0.03328119 0.06295621 -0.020691857 0.023283374 0.08256544 0.12928464 -0.046632063 -0.03802244 -0.07288671 -0.073876366 -0.12475172 0.11446045 0.20777883 0.075933516 -0.11648099 -0.1042352 -0.12002367 -0.057627603 0.011334997 -0.029188711 0.06947755 0.09023993 0.14381734 0.2365641 0.2394878 0.03912968 0.23149721 0.083991066 -0.035790306 -0.071675494 -0.041075096 0.23510621 0.17902769 0.11015057 0.011857335 0.09347579 0.17914273 0.21023245 0.256817 0.3532887 0.13757548 0.11183446 0.36384082 0.32668558 0.30805162 -0.09062743 -0.08709002 -0.066201165 -0.29682508 -0.17147247 0.0016504016 0.03427625 -0.09968337 -0.11889632 -0.022186125 0.2375925 0.13705675 0.06693116 0.16766132 0.036550652 -0.16937925 0.019405281 0.03847967 -0.1017239 -0.2025899 -0.28373808 -0.080083676 0.05026158 0.08003629 0.22535343 0.1021895 -0.04422158 0.12203636 0.0065883263 -0.027190635 0.021803193 0.19541903 -0.13552843 0.028146489 0.25402513 0.08693559 -0.11401173 0.013158031 0.2226938 0.2744308 0.12591542 0.15295514 -0.10694138 -0.032783773 0.17372301 -0.0010072265 -0.058271945 -0.093990125 -0.04655215 0.03393404 -0.092169434 0.11751455 0.12952663 -0.1094894 0.096945286 0.047046155 -0.05570977 0.08117767 0.10841459 -0.10458107 0.084044695 -0.07674451 -0.075450405 0.01141493 -0.028075524 0.0711641 0.089913175 -0.048319742 -0.102792785 -0.05694619 -0.096101195 -0.18647918 -0.23485944 -0.009861936 -0.16276498 -0.28504473 -0.11991104 -0.17210971 0.030205607 -0.14247912 -0.091694765 0.09571424 -0.00019977591 -0.15504226 -0.01395504 0.029723445 0.18138021 0.016157232 -0.12548046 -0.08440659 0.17778642 -0.018794984 -0.0785024 -0.08525903 0.11409769 0.06197592 -0.039568815 7.3249044e-05 -0.068048455 -0.17857914 -0.22936939 0.036839847 -0.088511 0.0024307338 0.1845779 0.095381215 0.19720143 0.16215095 0.071750015 0.25066647 0.38514668 0.07477096 0.053886443 0.055256955 0.1626126 0.17535464 0.12100383 0.03128856 -0.054512776 -0.17478351 0.07409004 0.15928383 -0.0053467946 0.2658013 0.16458389 0.1602612 0.05085143 -0.090876736 -0.02208761 -0.15051258 0.009112603 0.08131806 0.18465984 0.3133418 -0.09643869 -0.328087 0.17042781 0.16692223 0.33115488 0.2646845 0.18362376 -0.029100774 0.10820933 0.06455078 0.21367039 -0.035701334 0.21761374 0.18743764 0.21620919 0.040199086 0.17207491 0.10319062 0.23092589 0.032212835 0.08627812 0.12400894 -0.02478547 -0.008341011 0.020433243 -0.11836886 -0.109418206 0.028715048 0.039301395 -0.06124087 0.105425544 0.016612222 0.043084186 0.47674304 0.09165208 0.06604136 0.14934765 0.048594385 0.09014773 0.1293125 -0.10533182 0.11518951 0.10909979 -0.038800232 0.054882064 -0.056240946 0.08342637 0.103466436 0.05057612 0.05372013 -0.048385203 0.014794603 0.089854926 0.010636926 0.06627631 0.08736706 0.012532756 -0.08369776 -0.07560921 -0.09007582 0.12626688 -0.012427188 -0.11464831 0.115872785 0.02131643 0.121499375 -0.08383052 -0.0009574415 0.15804364 0.029924609 -0.09717099 -0.09783914 0.038992785 0.19730064 0.13026889 0.11772628 -0.1382283 0.18178615 0.17621556 -0.06820007 -0.039149683 0.03449422 -0.020624505 0.010686921 -0.06220555 0.1677499 0.048750542 0.03183216 -0.12858838 -0.07757698 -0.11039161 -0.11420445 -0.090944916 0.022193424 0.2608243 0.054737292 0.075457245 -0.17300323 -0.10805 0.050488964 0.16153607 0.20058714 -0.12072321 0.0883439 -0.061240416 -0.07706553 -0.05336077 0.0030421712 0.046163257 0.04739629 -0.0057373266 0.00653969 -0.1270994 -0.059418738 -0.5325236 -0.22241819 -0.13239214 0.043121595 0.039604403 -0.2597607 -0.12088651 -0.013753785 0.061635576 0.045137994 0.08417793 0.07226226 -0.056541502 -0.048719957 -0.016432963 0.016761342 0.06588287 -0.022791272 -0.027881281 -0.013830836 -0.21180482 0.14844827 0.21129206 0.15045464 -0.14413725 -0.1998411 -0.18752035 -0.11335133 0.18525268 -0.20791082 -0.18782164 -0.14362651 -0.17895964 -0.0882488 -0.3485978 -0.31762516 -0.31880158 -0.028034832 -0.1594036 -0.059683315 0.0154274795 -0.24300599 -0.31879932 -0.11351652 0.07691729 0.14689524 -0.12842743 -0.30248836 0.065535605 -0.0119047165 0.095037654 0.01115109 0.06284092 -0.087110765 -0.01738359 -0.08076861 -0.0945546 0.10889554 0.032104954 -0.03241303 -0.12103894 -0.10104704 0.08412045 -0.007923074 0.07799049 0.0096692 0.04038234 0.02098614 -0.08117932 0.11685689 0.078989655 -0.09902975 -0.040837005 0.034255404 0.03358411 0.14468569 -0.011826205 0.17280936 -0.0024597042 -0.017427554 0.115979664 -0.09819497 0.032641534 -0.017128106 0.18272607 0.11777079 0.018524779 -0.02804048 0.12808943 0.13318072 0.12165746 0.16437027 -0.106555484 -0.045459956 0.041167255 -0.08226325 0.1027723 0.091128424 0.0047074226 0.11807481 0.045499604 -0.081785485 -0.018838063 0.0220829 -0.009649076 0.007335782 -0.20668997 -0.1744611 0.19139639 0.34914142 0.2591446 0.10720625 -0.06650486 0.10304653 -0.025771845 0.3980401 0.061457828 -0.20453316 -0.13661334 -0.12088823 0.01275712 -0.06001566 -0.10198358 0.009073547 0.036565892 -0.012705788 0.09332817 -0.16286224 -0.029677698 -0.08975509 -0.12760524 -0.2011164 0.046027645 -0.074918486 -0.088483706 -0.56906474 -0.32673752 0.14209208 0.009282181 -0.04918583 -0.38061 -0.1428182 0.014390723 0.09638453 0.22672139 0.17450842 0.014238701 0.038529687 0.025992677 0.13990846 -0.106668726 0.19093925 -0.03726377 0.08474452 0.124258004 0.30956763 0.1001711 0.06304869 0.15346548 0.06657434 0.014719549 0.014421884 0.056244206 -0.14734487 0.04726617 0.053551093 -0.06545244 0.09570555 -0.0059828795 -0.012311932 -0.1626274 0.14460775 0.077879876 -0.018394776 0.08171028 0.09031655 0.074392244 -0.05941081 -0.013351627 -0.10577394 0.08807176 -0.04254806 -0.05334972 0.115454346 0.11834128 0.12727027 -0.07127048 0.09896971 -0.07954839 -0.10653287 0.087800056 -0.020838268 -0.010577746 0.07191984 -0.12980048 -0.11393167 0.028412998 -0.057355337 0.08432801 0.061106645 0.12171343 0.094011255 0.12285848 -0.08091965 0.18003374 0.16933568 0.09439961 0.27497187 -0.063324995 -0.021209493 0.059657462 0.008342807 0.04337527 -0.0029378233 -0.1021903 0.05947662 -0.11507395 -0.09659437 -0.01579084 -0.084102355 0.013666492 -0.09315402 -0.050492607 -0.013812135 0.11893103 0.014186816 0.12761457 0.15580714 -0.1903992 0.25283575 0.090195134 -0.050675735 -0.026998198 -0.10779805 0.034184895 -0.14179431 -0.15470326 -0.031750828 -0.18531528 0.1041193 -0.05787875 -0.116028376 -0.080732815 0.26529092 0.15396112 0.31298694 0.14127307 -0.034548163 0.041830663 -0.007225668 -0.102876626 0.014756509 0.028218554 0.1753135 0.029633941 -0.10158095 0.24302366 -0.02261071 -0.030477501 -0.13947469 -0.13885881 0.1299902 0.24184641 0.08608075 -0.11391514 0.014745504 -0.076387964 -0.13869557 0.056427218 -0.15491584 -0.11427237 -0.15201007 -0.08122857 -0.1776212 0.30160406 0.38460368 0.24914664 -0.020188004 0.1716371 0.024461925 0.14937186 -0.084476426 -0.22446352 0.11680533 -0.09771554 -0.023332689 -0.18072413 -0.2084705 -0.17497502 -0.045778997 -0.0010965223 0.13365997 0.035481006 -0.12251675 0.16442925 -0.057950612 0.010786561 -0.08947221 -0.48945853 0.030435113 0.14989688 0.034074638 0.1084286 0.0895597 0.36807197 -0.22211817 -0.45084772 -0.3944794 0.44485316 -0.22062096 -0.53900224 -0.052909277 -0.58625823 0.3064597 0.17807853 0.3366117 -0.42416084 0.047539856 -0.13991915 -0.25821942 -0.38762793 0.22904 -0.22782151 -0.47683215 -0.4519551 0.58472 0.12926704 -0.5396879 -0.58344454 0.19562957 -0.48672518 -0.27864638 0.14802784 -0.281402 0.16552842 -0.41343838 -0.05453678 0.29612362 -0.39319423 -0.1981448 0.31577808 0.20498732 -0.35971892 -0.1503924 -0.011067872 0.34994164 0.031785674 -0.45327535 0.0023981826 0.06269355 0.33162728 -0.6612166 -0.39921945 0.5087316 -0.8076676 0.14347678 -0.27568704 -0.19508743 -0.0654701 -0.012364065 -0.5004218 -0.2393286 0.20478459 -0.1805706 0.338993 -0.5660378 -0.28268602 0.07776395 -0.43833217 0.15909564 -0.75344515 -0.35895234 -0.30806297 0.4273643 0.28135285 -0.42751074 0.17380539 -0.1143417 -0.20010531 0.5531136 0.24165921 0.47301194 -0.6903684 -0.26310056 -0.085519485 -0.10946522 -0.4063908 -0.20465869 -0.0643829 -0.47103062 0.21500427 0.29800075 0.10891221 0.15677933 -0.5442239 -0.59661084 -0.015923435 0.45336267 0.18359624 0.22832072 -0.08931221 -0.4240119 -0.59178984 0.2222811 -0.33371383 -0.08063842 -0.6395803 -0.54772365 0.46787238 0.024784397 -0.17653137 0.39832902 0.029703178 0.19530454 0.01661765 0.042275105 0.076412834 0.07811061 -0.0999567 -0.4024551 0.4299359 0.49476647 -0.54499596 -0.03070976 -0.14571491 -0.33975333 0.4394797 -0.14946264 0.37596747 -0.27531746 0.21470283 -0.5248971 0.33286497 -0.5986132 0.012388142 -0.63073885 -0.04177802 0.6342593 0.53072184 -0.13959798 -0.27387968 -0.36519468 -0.020542506 -0.043396834 -0.045646857 -0.061647564 -0.05192595 -0.09554298 0.10790201 -0.09395042 0.07674285 -0.056096602 0.21030769 -0.12395838 -0.050202273 -0.013807815 -0.09544899 -0.11770983 -0.09758395 -0.08662647 -0.12024124 0.008610452 -0.0008347773 -0.14010625 -0.026339972 0.007832826 0.0323621 0.1356417 0.015925135 0.086535685 0.014133225 0.0029067511 0.13424304 0.14514568 0.029757516 0.05538121 0.03370176 0.062366996 0.094174035 0.04660348 0.010149435 -0.0101425 0.010395839 0.026346587 -0.0046396586 -0.062085968 -0.0043767206 0.04146141 0.08995015 0.0046392106 -0.06833356 0.0014106948 -0.009340882 0.12226944 -0.0048222 -0.042701278 -0.061116386 -0.029177064 0.015539813 -0.03921014 -0.049309835 -0.059918363 0.042926624 0.061337117 0.08285665 -0.022654554 0.09960975 -0.033174723 0.011702799 -0.012755934 -0.041353036 -0.0007306054 -0.0246454 -0.042108424 0.02290448 -0.015603867 0.04701707 -0.003952572 0.03120459 -0.022228615 0.0066081635 0.020679139 0.008171108 -0.04455181 -0.033395916 0.039377987 -0.027042814 0.041092757 0.02070076 0.036956597 0.029070176 -0.010737307 0.008762304 0.14442262 0.15952219 0.23907788 0.15764591 0.04922685 -0.31299147 0.07276926 0.020115988 0.13557003 0.037427057 -0.49951333 0.049207594 -0.055749048 0.13124062 -0.16243558 -0.1094721 0.052076235 0.0030703882 -0.008633723 -0.07897547 0.19388503 -0.24420986 -0.21893191 0.05027422 0.13527203 -0.1886925 -0.05840218 0.041980073 0.006079647 -0.089183144 -0.12747806 -0.16457519 0.040748302 -0.071066216 -0.07696937 0.06677152 0.03383137 0.0971494 -0.009765086 -0.12316206 0.17117262 0.10005457 -0.0800001 -0.03636811 0.12676868 0.04659525 0.042483464 0.023212347 0.043308847 0.100865796 -0.037416227 -0.060259707 -0.08599184 -0.07963338 -0.024438301 -0.07000595 -0.051497087 -0.010055889 -0.098193884 0.03470473 0.121214114 -0.0068688 0.038858645 0.027165307 -0.09495531 0.09225861 0.116531044 -0.016203515 0.04262772 0.023183687 0.089110665 0.1499674 -0.011222381 0.040409904 0.035191093 0.07522758 -0.032904077 -0.046479046 -0.13734058 -0.10376305 0.030468734 -0.0882827 -0.047068544 -0.02057876 0.09974373 0.004653732 0.103568666 0.18728134 0.16550604 0.01834077 -0.07833785 0.048341416 0.03206832 -0.08545097 0.0022828218 0.08003986 0.07927156 -0.051965952 -0.10268026 0.015427092 -0.05065991 -0.032057825 0.014090582 0.030988896 0.035327133 -0.18350022 -0.07006761 0.10873728 0.10674667 0.02769326 0.0027309137 0.061924767 0.024718115 0.07439249 0.08620556 0.13326235 0.0138879 0.044645805 -0.06517131 0.008930293 0.09488812 -0.027135817 0.026319783 -0.00742009 0.010665119 0.06328295 0.021282336 0.08279839 0.049520534 0.06489994 -0.03636268 0.0070242803 0.032291505 -0.030828997 -0.12756404 -0.04618799 -0.022913221 0.015593965 -0.06554537 0.12812385 0.01669946 0.15297958 -0.015573304 0.04881789 0.19753887 0.056303117 0.014590525 -0.048404627 -0.03393509 0.08417835 0.18115528 0.3194868 0.14304687 -0.011615262 0.013395804 -0.03163818 0.07008844 0.013236217 -0.010560451 0.13995072 -0.51125246 -0.081109926 -0.12647817 -0.01426721 -0.15423064 -0.11082126 0.059360325 0.0119100325 -0.11291098 -0.08053433 0.050239537 -0.15570882 -0.053976852 0.10224251 0.08926806 -0.23968025 -0.3111485 -0.19017287 -0.31420526 0.1454475 -0.30384248 -0.29023713 -0.26457945 -0.13387391 0.14695625 -0.050972924 0.034531593 -0.2076302 -0.0019021019 0.14057927 0.08281372 0.17438453 0.20184712 0.124958344 0.11393681 -0.013601282 0.008165918 -0.13433886 -0.07414565 0.14531279 0.08698858 -0.14136483 -0.11781152 -0.005788049 0.01961373 -0.32395253 -0.04179001 0.0067341956 0.0032029373 0.03756099 -0.36045069 -0.14095698 -0.09463362 -0.05670613 -0.0843502 -0.10883802 -0.020567115 -0.0072708055 -0.013928134 -0.029608378 -0.08007243 0.03722536 0.044850674 0.065040946 0.09080992 -0.20026883 -0.03804202 -0.026484255 -0.033229187 0.035972774 -0.28742227 -0.038036842 -0.051124096 0.10782386 0.113888815 -0.06512774 -0.027341941 -0.08293468 0.015631448 -0.070166126 -0.03949738 0.10689917 0.061342344 0.08746703 0.07456125 -0.016184099 0.1323373 0.08815188 0.0129239885 0.039482288 -0.3389475 -0.0005792815 0.092407644 0.12349786 0.025475156 -0.19827978 -0.16236003 0.058062978 0.11197398 0.13516578 -0.018370239 -0.021960368 -0.012202439 0.06494368 0.0047135977 0.08373697 0.055073284 -0.08173622 0.017709043 0.026375953 0.024583844 0.1025297 0.021208 -0.019100782 0.025777169 -0.12322861 -0.12970291 -0.040883828 0.05071221 0.08225901 0.023216227 0.036480136 0.032741345 0.07013373 0.005373684 -0.05610847 -0.13953422 -0.08896447 -0.050135914 -0.21995178 -0.09064938 0.037261114 -0.009677985 -0.09019171 -0.16764207 -0.06662441 0.0055383635 0.086447455 0.081773005 0.07308266 -0.31687316 -0.253263 -0.11696271 -0.04824515 0.03803072 -0.09041968 -0.09169354 0.01799653 -0.07190225 0.22027421 -0.22827706 -0.223939 -0.006998393 0.031208321 0.18546377 -0.30346227 -0.15527771 0.04006634 -0.019618565 0.03456636 -0.22303548 0.023328774 0.1396619 0.015553776 -0.115681306 -0.12751012 -0.034050215 -0.012978684 0.011762386 -0.055466298 0.15912697 0.030344179 -0.06861566 0.019443538 0.057890266 0.017372407 0.19397028 0.018550228 0.068033665 -0.04522265 -0.020708514 0.066229545 0.1522945 -0.042202957 -0.120976605 -0.12636665 0.06800611 -0.061876994 0.08454163 0.026219772 -0.12874448 -0.0020552417 -0.111867614 0.020667924 0.043612894 -0.00017071191 0.0049509224 0.10515509 0.056036763 -0.056145564 -0.046678696 -0.07875793 0.083412364 0.032704398 -0.055136155 0.05659263 0.049486816 0.09978466 -0.016257754 -0.03929538 0.1464773 0.06380049 0.050847482 -0.028765488 0.023419246 0.036463033 -0.03459497 0.014338934 0.020468459 -0.02939273 -0.012543004 -0.009310101 -0.034960147 0.032211978 -0.019995185 0.0029809247 -0.032568496 -0.013980333 -0.015953517 -0.018368466 -0.0025804131 0.037627142 -0.010279326 0.0427915 0.004039547 -0.044509884 0.021515602 0.04005824 0.02779576 -0.008964907 0.030972626 -0.09483412 0.034232568 -0.12752391 0.15442859 0.00038236348 0.09029833 0.058485758 -0.1409213 0.017096588 0.1553813 0.08742475 0.048200794 0.023583662 0.101579785 -0.099303424 -0.032307345 -0.045787964 -0.11901389 0.100138254 -0.06929715 0.035577327 -0.090820804 -0.0070951977 0.07430364 -0.005785114 0.049707163 -0.019451195 0.04658725 0.114178225 -0.034954693 0.06283286 -0.049726564 -0.01425238 0.0024569486 -0.012111077 0.0054423977 -0.041986186 0.0037018405 0.050475456 -0.019555574 -0.05452188 -0.049325377 -0.021476464 0.07702369 0.040232208 0.123686865 -0.07346721 -0.19741452 0.009681366 -0.004347821 0.026841523 -0.037187632 -0.00877952 0.04196037 0.03282373 -0.030437816 -0.107018925 0.10005273 0.06926339 0.04251252 0.012224569 -0.057889856 -0.01287339 0.037484556 -0.039284725 0.034866083 -0.0608043 -0.0083251195 -0.04474139 0.022389865 0.13530785 -0.042845003 -0.04329532 -0.09939661 -0.075185195 -0.0107663125 -0.0570075 -0.025180476 -0.09676332 0.12253868 -0.018131925 -0.0434391 -0.09549695 0.040197972 0.22250178 -0.029444274 -0.07722954 -0.018497262 -0.11409556 0.016428445 0.017870698 0.028986601 -0.06792321 0.04985722 0.052443042 -0.009991968 0.08017856 0.1528839 -0.056261234 -0.02792356 0.044378806 0.11293656 0.18097045 0.07293698 -0.042884223 0.018363725 0.0648392 -0.016271563 0.04104952 0.050272524 0.017335122 -0.057210058 0.0054704375 0.10179994 -0.09296502 0.055544466 0.14898661 -0.010470428 -0.047180682 -0.009649588 0.025010036 0.023877995 0.032681275 0.11447005 -0.09635545 0.048469376 -0.007896941 0.034900874 -0.03823126 -0.0077705523 -0.07540041 -0.11180669 -0.06801332 -0.06691939 -0.1456008 0.05124454 0.023041476 -0.042366885 -0.055608682 -0.12539193 0.039557427 0.058038097 0.056349095 0.08552732 -0.06227312 -0.089053735 0.052624322 0.08505652 0.04504598 0.067322925 -0.16251177 0.012169376 0.024545087 -0.083368614 0.07669665 -0.080745354 0.01508834 0.113040246 0.010332621 0.09922495 0.0008662619 0.0005955744 0.07093684 0.00043635577 -0.085472755 -0.07312142 -0.1001071 -0.19766036 -0.17259096 -0.0980064 -0.015618753 -0.08475888 0.017974334 0.06688803 0.019204885 -0.0019870352 -0.009470849 -0.008190134 0.001107906 0.027236162 0.019792732 -0.0017685757 0.0037068212 0.1306554 -0.06574674 -0.11987648 -0.087133504 0.108887754 0.3150097 -0.106154665 -0.08342218 0.020392518 -0.059838895 -0.029215492 0.19017698 0.15674889 -0.06675839 0.0011836964 0.09143343 -0.07770405 -0.23365049 0.092071265 -0.0018902703 0.01417239 -0.05042604 -0.11044452 -0.06712161 0.03745066 0.12781197 -0.030534917 -0.02281557 -0.101549566 0.0040776203 -0.024960537 -0.004304088 -0.002843691 -0.05809419 -0.07914563 -0.15821601 -0.19413683 -0.14556916 -0.047386587 0.057772167 0.014009794 -0.135109 -0.0015530615 -0.030860042 0.015191422 -0.038654305 0.04616263 -0.048019856 -0.08485276 0.014634942 0.060553607 0.0059305355 0.05198467 -0.12165196 -0.11973041 0.0015989003 -0.278853 -0.13260129 0.02349829 -0.0072923526 -0.035778522 -0.13469675 0.07105233 0.020185905 0.05608101 0.02001674 -0.084212646 -0.044500712 0.07099295 0.03233325 0.15758044 0.07189993 0.05713662 -0.022854436 0.10440615 0.093355626 0.0152651025 0.07434807 -0.011624153 -0.06450498 0.04401492 0.029473184 0.08538639 0.055877574 0.022510242 0.0032627834 -0.07567714 -0.044353493 0.06882814 0.040145136 -0.0024430563 -0.055648446 -0.005944015 0.08605483 0.03812297 0.004872961 0.034723185 0.018453902 0.043960374 0.10030809 0.124811195 -0.09458217 -0.06866135 0.021761969 -0.0014289635 0.08949318 -0.15747999 -0.1900705 -0.15278861 -0.21492068 -0.15152691 0.046984665 0.003109455 0.0598224 0.08222256 0.07230533 -0.04341365 -0.08098078 0.018291546 -0.02412272 0.07276832 -0.0702779 -0.16623557 -0.02330949 0.07631349 0.0944984 -0.072699115 0.11606778 0.13869874 0.1503027 -0.00430105 -0.1553362 -0.051216215 -0.0169535 0.10343994 -0.00542998 -0.30185422 -0.097624354 -0.18439928 0.10854477 0.016371625 0.20858677 -0.0074637313 -0.011934615 0.039214734 0.08023902 0.0053690113 0.0147176115 -0.00887232 -0.07480658 0.060466368 -0.06927823 -0.17912349 -0.03777071 -0.04944215 -0.032898474 0.09837613 -0.13418464 -0.011986765 -0.011917213 -0.14642751 0.1500717 0.062057845 0.13146542 0.0065968237 0.11991556 -0.15110669 -0.12069807 -0.05479366 -0.0026670354 -0.036262088 0.024527268 -0.055574898 0.06685439 0.04493362 0.1274979 0.12577471 -0.008684348 0.07342974 0.056593332 0.013513999 0.06234313 0.07175073 0.03428135 0.0048448965 0.06657414 -0.08961735 0.016485522 -0.016389897 -0.0010801789 -0.0030892512 0.033274993 0.0068225022 0.0006335252 -0.011737973 -0.046514943 0.045937408 -0.00614425 -0.00070522696 0.031017313 -0.048710693 -0.009751003 0.027814897 -0.00063966797 0.023362705 0.0027734481 0.009221501 0.019729668 0.01803976 -0.00563071 0.03491549 0.079461224 0.044678394 0.03655325 0.03590313 -0.019586647 -0.017714657 0.081155434 -0.08277578 -0.07376289 -0.040153556 0.009369139 -0.0430856 -0.05905777 -0.10317953 -0.021497991 0.005944948 -0.086015366 0.059085257 -0.08304159 0.12147929 -0.0058670747 0.03432181 -0.049405698 0.009680652 0.02907506 -0.0581769 -0.013124452 0.07124201 -0.13178873 -0.06501639 0.024793377 -0.011804174 -0.035428297 0.025469646 0.089660645 0.03985238 0.009788475 -0.055475567 0.030083206 0.104019865 -0.11225977 -0.16840976 -0.033275068 -0.03733573 -0.15622912 0.014792253 -0.012875815 0.013026882 -0.016806219 -0.088987894 -0.0070875543 -0.0051370575 -0.029310225 -0.012550616 0.030039685 0.062259346 0.037639793 0.09902245 0.06325857 0.079054825 0.061129928 -0.14231218 -0.015373715 -0.07623953 -0.06601559 -0.09738206 -0.13006441 -0.07343683 -0.1011729 -0.12133435 0.09154355 0.048724916 0.0050051236 -0.0027990367 -0.20345592 0.047016285 -0.039859362 -0.042577706 -0.073947914 -0.02205357 0.09981064 0.11490617 0.087874845 0.08478359 0.03854207 0.011316822 -0.1589387 -0.09239555 -0.12638062 -0.0017863231 0.010260558 -0.15618895 -0.09994068 -0.11783079 -0.0005839339 0.13054453 -0.020614233 0.060992625 0.05366792 0.014946538 -0.11067859 0.06705941 0.007485975 0.109796375 -0.008931271 0.08225564 0.0020254054 -0.01690221 0.053176418 -0.100694485 0.08002904 0.077381656 0.08335127 0.08797016 0.050890535 -0.020569203 0.013488334 0.0098841395 0.014106389 0.04525682 -0.069841884 -0.117406026 -0.119082004 -0.08904518 -0.053726364 0.05955242 0.017074425 -0.036728878 -0.11740724 -0.074585035 -0.09472255 -0.05237917 0.059921343 0.10461149 0.22258417 -0.04784696 -0.073294535 -0.09230663 -0.05074603 0.10655111 0.088798694 0.03093893 -0.02165997 -0.13246585 -0.14040707 0.06526711 -0.15598457 -0.047708053 -0.09397942 -0.099745594 -0.114324145 0.03344137 0.032237276 0.0225339 0.1558541 -0.09477495 0.007879155 0.1156131 0.048512653 0.026734713 0.013033833 -0.016343359 -0.10789881 -0.10321273 0.020095682 -0.1976635 -0.064375356 -0.04481048 -0.12937364 -0.0613375 -0.028375972 -0.112985134 -0.15425125 -0.07323865 -0.051355 -0.13451856 -0.09559517 0.1543196 0.047608677 -0.045650207 -0.10053487 0.011907219 0.19517551 0.043373607 -0.06966594 -0.09437088 -0.013668801 -0.07350558 0.08591983 0.1623599 0.09664385 0.20905678 0.29613918 0.06458699 0.23759015 0.04842064 0.13343266 0.21531092 -0.017310143 0.12512401 0.092616 0.1564123 0.10141121 -0.10917938 -0.048165705 -0.14224966 -0.07599863 0.06363194 0.017470686 0.021635678 -0.012473485 0.04181536 0.03871938 -0.00646824 0.14103693 -0.038902126 0.008466074 -0.016563812 -0.12715533 0.045175772 0.06660932 -0.09280847 -0.12027771 -0.058292672 -0.066940024 0.038142994 0.03761174 0.08276933 -0.038755972 -0.09800987 0.0003878257 -0.03656872 0.04112676 0.039993193 0.16855969 -0.0077520325 -0.11660202 -0.101542994 0.106971286 0.007169423 -0.13923836 -0.24408871 -0.010151445 -0.025051914 -0.11919508 0.043207966 -0.040477708 -0.012892393 -0.041848615 -0.07361956 0.086041786 0.13024834 -0.018493729 -0.1278388 0.025594486 0.057605844 -0.09674637 -0.13214295 -0.011051336 -0.059081398 0.08190037 0.10846668 -0.1086793 -0.045254655 0.05845014 -0.042153865 -0.11511675 -0.048529364 0.10872704 0.15515895 0.034221593 -0.049458075 -0.06851154 0.0153841255 -0.1200779 0.06424866 0.07053531 0.038592413 -0.13292582 0.0334231 -0.14313054 -0.110143654 -0.028446332 0.026461879 0.122463994 -0.065853834 -0.041442737 -0.048468657 0.030487154 0.049497176 0.0014456257 -0.10224168 0.041648142 0.08640219 0.056078102 -0.03487321 0.052602597 -0.03213114 -0.025196336 -0.03282606 0.09506688 0.005259912 -0.08410959 -0.098538384 -0.10418389 0.11716069 0.13237472 0.0260301 0.020848779 0.01763836 0.1024135 0.013803099 -0.09857915 -0.11867013 -0.099429555 0.23715514 0.08165928 -0.03830732 -0.120890886 -0.088187546 0.036033653 -0.17981687 -0.2598808 -0.20435369 0.052449062 0.05090653 0.0011494921 0.038334273 0.13523299 -0.08168277 -0.03649672 0.09466441 -0.046977464 0.0033124986 0.0236065 -0.0004011414 0.02505778 0.03762841 -0.09944169 -0.13117817 0.14160626 0.2316755 0.1075399 -0.08916671 0.040283397 -0.057028268 -0.0036670286 -0.082705796 -0.056568787 -0.114338145 -0.03613947 -0.04547768 -0.068337075 0.0016416067 0.16928597 0.07023241 0.005743921 -0.10838475 -0.016055934 -0.07413913 0.045126013 0.060474716 -0.07441342 -0.0023673824 -0.031610183 -0.01643626 -0.02141825 -0.281069 0.016340187 -0.012792515 -0.14703827 -0.10874622 -0.18979104 0.10221156 0.020141501 -0.11092181 -0.06539996 -0.14324793 -0.017181423 -0.14819399 0.015082428 0.00052478444 -0.026027013 0.041825652 0.038528737 -0.029551102 0.019087572 -0.038256757 0.03651252 0.013305361 0.0136280805 -0.03971689 0.020736974 -0.002911705 -0.017966686 -0.025271991 0.01578475 0.031282246 0.030807361 0.0007125996 0.05167721 0.057359047 0.021513384 0.00511669 0.03457346 -0.02227411 -0.03851595 0.016412873 -0.19580723 -0.1730993 -0.021308677 -0.10614794 -0.19931431 0.024571966 -0.012904023 0.16727357 0.07064438 -0.2075532 0.06304626 -0.13639913 0.13305518 0.086919166 -0.13670869 0.053662863 0.04626194 0.00163699 -0.053332336 0.020876035 0.2561892 0.025542112 0.05087634 0.059447028 -0.0016325811 -0.033778362 0.037708674 0.0826664 0.011200916 0.08099323 0.033092257 0.15611854 0.2160423 0.15405239 -0.016921941 -0.030599993 -0.07360043 -0.20176713 -0.17809902 -0.17615971 0.10194376 -0.0708596 -0.05649994 -0.042700447 -0.008051505 0.09054629 0.014589928 -0.021007864 -0.02582847 -0.043434426 0.0034639447 -0.051411692 0.029608281 0.003971978 0.03242868 0.037082244 0.10832331 0.072374865 0.08393519 0.14984903 -0.02234537 -0.06776417 -0.24531093 -0.14049323 -0.15830037 -0.07974802 0.013466003 -0.08432254 -0.1389049 0.05138625 0.027392529 -0.012258336 0.03281362 0.08050213 0.03539983 0.07049691 0.053315323 0.0470188 0.119452916 0.12662731 0.10998715 0.07983762 -0.08667644 0.10904063 -0.0069612917 -0.016399773 0.01923618 -0.33526403 -0.31124178 -0.33503154 -0.33343607 -0.09116561 0.065956436 -0.1403488 -0.16813895 -0.04227606 -0.13526216 0.03234206 0.0143627655 -0.14067383 -0.100141935 -0.00035631735 0.013512126 0.014758469 -0.0037827096 -0.05417473 -0.08114419 0.10486366 0.07923641 0.04997705 -0.0867652 0.064137146 0.12223999 0.107890435 0.03252663 -0.07076541 -0.075421296 -0.1633181 -0.26957563 -0.2573113 -0.09416098 -0.1401056 -0.026560094 0.010177884 -0.012773169 0.036483962 0.055690154 0.044824827 0.033937715 0.02852426 0.043188225 -0.085624516 0.16612689 0.09173195 0.11790102 0.087947376 0.19853601 -0.06944383 -0.0036923883 -0.094968386 -0.09377928 -0.0050443346 0.20971772 -0.036967833 -0.12076956 -0.031494204 -0.18324965 0.0075605097 -0.029891977 -0.011151763 -0.23303983 -0.21617097 -0.07464527 0.006144409 0.047786307 0.036676448 -0.10607469 -0.016119163 0.021229355 0.051465772 -0.11877575 0.011323198 0.110773414 0.075019754 0.050539635 0.1469273 0.30546382 -0.03290813 -0.036595643 0.0048885187 0.20952414 -0.019352155 0.09082059 -0.09735944 -0.07139745 0.035005193 0.12768698 0.021555427 0.12721351 0.04242253 0.17210037 -0.03252955 0.07494718 0.09988043 0.0005591142 0.11133395 -0.049218673 -0.08254704 -0.3407826 0.06441668 -0.05029259 0.04565944 -0.0419505 -0.2450827 0.09143282 0.049057953 0.0032274704 -0.05291128 -0.18026042 -0.057961546 0.0314131 -0.08591958 -0.17050925 -0.12929225 -0.07637429 -0.1324015 -0.14037603 -0.06502981 0.08166488 0.013353626 -0.121425636 0.082881436 0.05217088 0.098247156 0.015521598 0.10149603 0.25102118 -0.07387127 -0.11667874 0.04728061 0.029725458 -0.02511273 0.0034849218 -0.04714873 -0.06140516 -0.086825736 -0.05828418 -0.0048875967 0.11902533 0.06377593 -0.086699255 -0.048138574 0.15178698 0.22197984 0.09923765 -0.13814355 -0.13753843 -0.034753576 -0.14423871 -0.06419594 0.03588124 -0.0799514 -0.019457098 -0.008309064 0.057314172 0.045226593 0.106187984 0.094242506 0.048292093 0.035933573 0.023231657 -0.020385608 0.06589824 0.014009964 0.20533223 0.050612967 -0.07127278 0.041825116 0.06721496 0.064081505 -0.1284935 -0.13968982 -0.0757506 0.1030176 -0.0063133663 -0.11370143 -0.11658458 -0.084573045 -0.08070646 -0.16198301 -0.084022895 0.118993066 0.014322444 -0.20305264 -0.12786843 -0.094214484 -0.04653222 -0.020689689 -0.06059894 0.013442204 -0.004097794 -0.17876568 0.027905544 0.050197292 0.0956347 0.033926312 -0.18127738 0.012749285 0.036274698 0.097633936 0.21144123 0.05451702 -0.20073731 -0.12599581 -0.05699441 -0.020236516 -0.1094287 -0.006920914 0.051181953 -0.025075957 -0.028378705 0.06332038 0.0093319295 -0.070167445 -0.008914664 -0.1543322 0.0019188515 -0.032664567 -0.014967723 0.10734822 -0.08568742 -0.10516826 0.109781496 0.11433693 0.011050848 -0.0179364 -0.21651542 0.20020774 0.0717604 0.10283951 0.046811175 0.048237022 0.17017162 -0.04484462 -0.12369197 -0.15586248 -0.04910339 -0.053581573 -0.055600103 0.047182724 -0.10926835 -0.13586655 0.001217179 -0.018566538 0.061569076 -0.072739206 -0.16898268 0.031772144 -0.015531064 -0.0969089 0.116151385 -0.005122631 0.08617284 -0.0062995786 0.08807462 0.025487661 -0.09347437 0.030017702 -0.052565895 0.065765254 0.029046234 0.13254352 -0.10362658 -0.002752696 0.028241897 -0.035352767 -0.014771894 -0.016415987 0.04980545 0.037966546 0.014965193 0.0044629746 0.13714658 0.08107929 -0.023072949 0.068030074 -0.047535595 0.07638606 0.09405551 -0.09746495 -0.099564165 0.014654575 -0.055970483 -0.046739686 -0.035510793 0.028680118 -0.008421844 -0.02365452 -0.03458786 -0.033232693 0.027052293 0.030967047 -0.032706227 0.00029974282 0.012164116 -0.0018797361 -0.020741133 0.019447394 -0.00785495 0.006010253 0.0068097673 -0.010852827 -0.05223044 -0.020271929 -0.008739479 -0.011103617 0.003418237 -0.030780666 0.024808766 -0.121028304 0.010559316 -0.18037957 0.19428295 -0.11809563 -0.16351382 -0.021452798 -0.10513194 -0.024554988 -0.119283095 0.011390983 0.06431119 -0.018944873 0.025081607 0.101579346 0.04806605 0.11905869 0.19839665 -0.054187886 0.023693142 0.18414354 -0.08875599 -0.10179163 -0.103152275 -0.21191303 -0.01530686 0.056088965 -0.018589476 -0.10757666 0.0068231197 -0.1543909 0.03303347 -0.05300429 0.00668095 0.09019885 0.0110183 0.11106559 0.052222442 0.057254963 0.10114953 0.08255512 0.16926199 -0.0076709734 -0.018858414 -0.10183588 -0.03496872 0.09377649 -0.088497765 -0.13025238 -0.15541628 -0.10049104 0.0048931004 0.031501945 -0.011441239 0.0355509 -0.03998917 0.032436162 -0.103249215 0.02802997 0.13583186 0.1142649 0.08165656 0.016970381 0.054101955 0.08513946 0.099103086 0.24538551 -0.014927564 -0.019825282 -0.08781538 0.07660753 0.10203096 -0.020601226 -0.26915985 -0.0792145 -0.015436539 -0.013908476 0.09823103 0.07001969 0.124139026 0.0047764527 -0.056007903 -0.083408184 0.08182723 0.004260711 0.023070693 0.05974668 0.11039875 0.013411692 0.093624085 -0.08178758 0.052209184 0.039164357 0.07642395 -0.16493914 -0.22046901 -0.15395461 -0.017148692 0.104054116 -0.019133037 0.08771932 -0.015282039 0.016821507 -0.01825135 -0.15572292 -0.08305234 -0.04641993 0.067587905 -0.038657825 -0.09815661 -0.060451094 -0.062059317 -0.05743417 -0.0022173298 0.020742688 0.0010103687 0.008390254 -0.09726307 -0.058976293 0.017346576 0.043413278 0.07101979 0.12586848 -0.2263171 -0.063430995 -0.13916177 -0.1099815 0.06254671 0.05628777 0.048857987 0.013435505 0.04226784 -0.0005288399 0.025915993 -0.018197464 -0.04164375 0.019577278 0.05237685 0.047079798 0.051784214 0.011203644 -0.02275843 0.10468976 0.13077855 -0.04526807 -0.110067375 -0.00942433 -0.04016177 0.06402015 -0.0075093037 -0.18758957 -0.050132252 -0.22234887 0.15584825 -0.08266313 -0.094473235 -0.0010032239 -0.23482268 -0.08700634 0.01804552 0.052406114 -0.033241306 0.02602912 0.10776723 0.10249429 0.09908429 0.19794215 0.11144258 0.055804644 0.11243366 0.14471674 0.030332007 -0.048884816 -0.045803133 0.08367862 0.096566506 0.11139981 0.037032995 -0.1484096 0.074334845 0.16583784 0.092401944 0.09324987 -0.0503663 0.057541337 -0.0052613574 -0.124505445 0.02734204 0.06482243 0.07269512 -0.07124639 0.232425 0.4053602 -0.022236852 -0.061875924 0.09592701 0.054628965 0.17059389 -0.0041962536 0.07354527 -0.090472475 0.018248867 -0.13937545 -0.010658027 -0.111587815 -0.17221642 -0.09223934 -0.07157501 -0.058918454 -0.053763013 -0.052643195 -0.10061787 0.035446905 0.1393978 0.010249133 -0.01591071 0.011026017 -0.042019837 0.14733157 0.062329922 0.09071789 -0.001574965 -0.016977912 -0.10452825 -0.106415085 -0.20266111 -0.10646378 -0.23465814 0.00077903125 -0.00890464 0.0071852114 0.056068346 -0.116303235 0.02155509 0.08358837 0.12130532 -0.029509211 -0.106360525 0.037146192 0.08823282 -0.0040032915 0.118931174 0.1404344 -0.0016714678 -0.12592867 0.0060076327 0.07511796 0.022237975 0.23402148 0.13691826 -0.05195384 -0.12965529 -0.11235153 -0.09983929 0.014215855 -0.014757764 0.113901645 0.078115016 -0.15267865 0.03331039 0.058404684 -0.21164654 -0.106492065 0.059435513 -0.025108397 0.033498783 0.07213082 0.08281655 0.0321334 -0.022984164 -0.005809941 0.059802096 -0.10189015 -0.1887895 -0.20480299 -0.026421426 -0.21412417 -0.19798636 -0.1529618 -0.09754844 -0.008870119 -0.14612083 -0.110652 0.0041393274 0.18385553 -0.014806289 -0.054414712 -0.14402178 0.12000522 0.08148143 0.08281705 0.11336552 0.046526268 0.03389053 0.0760602 0.023802828 0.015664881 0.080215074 -0.0101364795 0.1951516 0.08248686 0.04191733 -0.030291611 -0.034939818 -0.0015295924 0.19655898 -0.13522908 -0.17696157 -0.103973895 -0.16473432 -0.13342059 -0.059568625 -0.15275155 -0.019877097 0.024122797 0.016164182 -0.019000158 0.027015185 0.21035928 0.13137847 0.1065936 -0.04636656 0.013182183 -0.024345074 -0.05538418 0.072569795 0.043752257 0.049035005 -0.11172437 -0.0095861815 -0.089468226 -0.040034525 -0.003136725 0.08525853 -0.028151382 0.021171382 0.011773691 -0.013746775 -0.08933105 0.101311795 0.13113475 -0.119076036 -0.06822701 -0.1705946 0.04116299 0.0014574043 0.11939034 -0.01642368 0.086524464 0.052472875 0.082004234 -0.022423884 -0.05201781 -0.035962727 0.14747877 0.08643559 -0.05841792 -0.028895283 -0.04296133 -0.04494307 0.029418752 -0.0007730075 -0.10402636 0.06530625 0.05093403 -0.14347245 -0.059348367 -0.04811215 -0.024444137 -0.03630998 -0.0077710412 -0.10864962 -0.050844725 -0.0379183 -0.045122433 -0.008300527 -0.0025383416 0.044096757 -0.0072839987 0.040991016 -0.011503777 0.024837079 0.00695848 -0.043815084 0.018821796 0.03358796 -0.033882357 0.005666338 0.033448145 -0.031338904 -0.042278916 0.0047188965 0.011332925 0.0029413237 4.2373988e-05 0.029637605 -0.02711173 0.012326982 -0.17556842 -0.08948859 -0.10625988 0.008673926 0.033019196 0.07328307 -0.013652951 -0.01532936 -0.1485857 -0.10185718 0.18737282 0.062258635 0.015578934 -0.08161396 0.05593978 0.018802404 0.046680134 -0.08271275 0.051679537 0.041813143 -0.3137374 -0.1680895 -0.053315632 -0.034803472 -0.07109465 0.03258943 0.15543088 0.08947586 -0.07297872 0.19791989 0.14003567 0.17221405 -0.110986635 -0.10905143 -0.0012950303 -0.13157444 -0.06274272 -0.08925597 -0.11882147 0.13714877 -0.13466981 -0.06156571 0.096009724 0.0741446 0.057936564 -0.028736474 0.011241254 0.054531362 0.16844061 0.28087127 0.040790595 0.12741952 0.12675378 0.043759074 0.13744292 0.10779541 0.005504142 -0.09174303 -0.034985434 -0.10699926 -0.035048947 0.014215041 -0.038846288 -0.08496072 -0.038406827 -0.11988641 -0.03642755 -0.012901427 0.027327359 0.104869425 -0.022974715 0.057724208 0.011916703 0.20094498 0.14352563 0.0751635 0.024935493 -0.003817834 -0.08219085 0.10335348 0.01563985 0.0052914657 -0.11816791 -0.1031058 -0.039520543 0.17073955 -0.038860697 -0.072344154 -0.01675991 -0.07288611 0.059306927 0.09158386 0.13000879 0.11054951 0.13351682 0.1759686 0.04573355 0.1090151 0.017027913 -0.10172303 0.012128562 -0.10912196 -0.02551316 0.0453301 -0.0098211365 0.116494715 0.001969599 0.054461483 -0.055714197 0.1100575 0.08485627 0.024036482 -0.0809079 -0.056489334 -0.024642535 -0.062501326 -0.043255083 0.056501713 -0.017244233 -0.015382165 0.040748615 0.05052345 -0.0007684986 0.1007404 0.083035685 0.09320817 0.060886372 0.11118577 0.052351587 0.06787706 0.033738207 -0.03565952 -0.18446042 -0.15137069 -0.052114964 0.00883686 0.08664402 -0.08119796 -0.05313556 -0.049367588 0.049218714 0.1010311 0.081964456 0.06418672 0.07051557 0.0696146 0.014338967 -0.028425915 0.007295926 0.09700695 -0.18426168 -0.11165988 -0.10422206 -0.04585769 0.0753316 -0.011783356 -0.04835104 -0.045612656 0.01632426 -0.035350543 0.301718 0.17937922 -0.06633859 0.04466362 0.083270855 0.13663591 -0.027810255 -0.027220098 -0.12546098 -0.057783093 -0.12315884 0.23758462 0.15623961 0.020963188 -0.09931991 0.029592222 0.1659735 0.024284782 0.2706541 0.3221135 0.22541519 0.0831674 -0.35761908 -0.08066288 -0.05681562 -0.09340247 -0.07581182 -0.46385145 -0.1652907 0.2088673 -0.14066105 -0.32459864 -0.2194701 -0.13853164 0.27776423 0.15508729 -0.002306336 -0.118549936 0.07953224 0.1905684 -0.26367527 -0.10006723 0.04019016 0.049422286 0.04610711 -0.0774449 -0.054449596 0.08757658 0.16296674 0.030181991 0.14079268 0.048033502 -0.08267629 0.03344393 0.026690507 0.18801711 -0.029097363 0.013510356 -0.06106629 -0.09294776 0.022054592 0.07540187 -0.0039427183 -0.03957591 -0.0055594617 -0.16649204 0.050511178 0.16205725 0.08704296 0.122230545 -0.038401876 -0.07422174 -0.15164034 -0.14017567 -0.06901882 0.04113187 -0.03820034 -0.027734684 -0.10312979 0.057819545 0.021826182 0.07185687 0.054498337 -0.083282754 0.05006723 -0.018467003 0.032441296 0.033150412 0.11709466 0.20089781 0.036429442 -0.15971176 -0.012611736 -0.08005921 0.13899492 -0.020203387 -0.012649052 0.028861461 0.06991076 0.04903505 -0.25292802 0.090188585 0.060654555 -0.052407864 0.096259326 -0.041756105 -0.123365395 0.103254415 -0.14142013 -0.021008613 -0.10087339 0.050077643 -0.05817044 0.066704564 0.10895083 -0.028872471 0.12488333 0.16049305 0.14965267 0.15183802 -0.016826365 0.06259474 0.05774161 -0.024558825 -0.092764884 0.13480327 0.049019337 -0.114354104 -0.20167834 0.02037197 -0.027707398 -0.040570986 0.015478353 -0.06102786 -0.11412013 0.026862908 0.04002987 0.0035234326 0.013683658 0.10712422 0.033317514 0.0077845934 0.08002403 -0.009026803 -0.04112026 -0.15678245 0.03368311 0.06291727 0.13699166 0.02607768 -0.08499489 0.07236272 -0.07829357 0.007633666 -0.042813696 0.008757095 0.011078341 -0.12689798 -0.05732065 0.026188422 0.009936094 0.029840011 -0.02610116 0.02428016 0.0931094 -0.12949511 -0.080986455 -0.04468443 0.113567814 0.04168673 -0.121544555 -0.022552412 -0.007171009 0.110787876 0.14062887 0.0003822834 -0.024055088 0.04031598 0.1148807 -0.079849966 0.063575774 -0.07486488 0.075078435 -0.090503134 -0.05288636 -0.039377112 -0.0053019878 -0.15078042 -0.09639605 -0.18653253 0.182727 0.16917366 -0.011559743 -0.02129598 0.0305194 0.12099396 -0.006224504 0.033811223 -0.06491978 -0.06979516 0.08401727 -0.13415958 0.058440976 0.008499736 -0.023853164 -0.059530962 -0.18429102 0.08388151 0.02667787 0.040623974 0.028478485 -0.085111886 -0.10446805 0.066451125 0.05813561 0.06559277 0.013251752 -0.003275743 -0.024245344 0.030081078 -0.022319622 0.036983497 -0.035427865 -0.0019622035 0.011624061 -0.027084934 -0.023946878 0.021839017 0.03564527 0.029666796 0.05074519 -0.01091725 -0.041157547 -0.023718594 0.001736853 0.01381837 0.058698714 -0.020895794 -0.024261804 -0.013590446 0.13511106 -0.030527439 -0.08717445 -0.05453707 0.06106802 -0.014800351 -0.026778774 0.019341456 -0.03799797 0.0004488594 0.093358055 -0.03847467 -0.092998646 -0.011093326 0.16214596 0.09037575 -0.14788838 -0.0038561812 -0.067154035 -0.078079455 0.153937 -0.0042845653 -0.2509964 -0.118321665 0.01759107 0.028252365 0.04825587 0.06918675 0.024997884 0.09672558 0.038205344 -0.019290801 0.0478389 0.0016373653 -0.11825822 -0.046541154 0.06574497 0.09977049 -0.10568568 -0.12230947 -0.016836626 -0.105551355 -0.14942531 -0.3066316 -0.050867863 -0.07872597 -0.03972297 -0.12712148 -0.3797595 -0.28094915 0.014338902 0.025532108 -0.006742124 -0.076751776 -0.032518916 -0.055899266 -0.02227365 -0.04295545 -0.07351999 -0.04613826 0.034570936 -0.038848586 -0.014027167 0.001691455 -0.06311084 0.03395107 -0.056263216 -0.038538568 -0.089815274 -0.11665118 -0.005267958 0.05313258 -0.09284727 -0.12770338 -0.21346514 0.034572564 0.008951681 -0.030676657 0.07307367 -0.051349487 0.030287437 0.009281162 0.20459501 0.18488532 0.17313562 0.0012754579 0.14024076 -0.013611952 -0.08301967 -0.11883697 0.073993415 0.0707118 0.08317803 0.05349907 0.046879094 -0.017005716 0.103832856 0.20532733 0.17086342 -0.03426771 -0.07556371 -0.13160741 -0.057648543 0.13605085 0.21081704 -0.07334198 -0.008450577 -0.052018836 -0.01956291 0.027317947 -0.050825216 0.07144064 0.06963149 0.10389252 -0.04512602 -0.031838737 0.01873235 0.14020452 -0.020544615 -0.1384446 -0.040614992 0.065149136 0.0010570183 -0.1679379 -0.030029085 -0.0030260938 0.023116026 0.0041093924 0.100386314 -0.01805983 -0.14615321 -0.056385573 -0.028323991 0.07746801 0.13187486 -0.13642861 -0.038576256 0.113275185 -0.05794971 -0.15119025 -0.104724675 -0.011736189 -0.0020633198 -0.049822744 -0.1680189 -0.1294716 -0.004012904 0.06356465 -0.016965052 0.017694654 0.16513185 0.1564897 0.0061333855 0.038418967 -0.04467173 -0.09260761 -0.0017223198 -0.01106507 -0.08049249 0.034295958 -0.03618491 -0.085330926 -0.16005692 -0.08961218 0.11029864 -0.060698446 0.052417506 -0.018102279 -0.24506609 -0.29474592 0.016936313 -0.0375033 -0.10595499 -0.021977035 0.037082322 -0.06193099 -0.081683874 -0.17459215 -0.12601462 -0.09586641 0.037270293 0.048994068 0.14253052 -0.20255257 0.094961524 0.06905054 0.09387705 0.32474464 -0.10216448 -0.053683516 0.048649672 0.050069828 -0.010354884 -0.22311501 -0.29365003 0.0360091 0.015450037 -0.21100874 -0.32470247 -0.1308191 0.079445854 0.05503615 0.10797478 0.09919386 0.05515643 -0.021755394 0.09738305 0.059616756 -0.106251314 0.053752962 -0.07317682 -0.030753488 -0.04329431 0.098150134 0.024291351 -0.054238927 -0.0036445926 0.084121354 -0.063135676 -0.19185221 -0.042479493 0.10712446 -0.0127506945 -0.039501775 -0.0005773506 -0.021720486 0.041951474 0.07725484 0.12584466 0.15441208 -0.0012201201 -0.020254172 -0.013572907 -0.017132368 0.116485365 0.07577564 0.01960534 -0.0466858 0.050642464 -0.12255702 0.07106982 -0.1017902 -0.057551175 -0.15085319 -0.2203067 0.05991043 0.018274918 -0.054515153 -0.14980704 -0.29273528 -0.20796207 -0.1821802 -0.052393913 0.13003637 0.24047074 0.049263667 0.09753214 -0.0036597373 -0.032163747 0.14553118 -0.01708287 0.0060131215 0.0034171287 0.14420697 -0.11576712 0.14446634 -0.1644523 0.038497232 0.15161681 -0.04259569 0.025473077 -0.019303689 -0.047875058 -0.14908773 -0.13060042 -0.0812298 0.05977128 0.22912621 0.17127882 0.026565162 0.045308597 -0.0243287 -0.07049707 0.027737936 0.11556892 -0.02424231 -0.07530997 0.09538294 0.16195507 0.14907381 -0.12023964 0.02423832 0.058073588 -0.19000277 -0.29662174 0.0068658744 0.06365208 0.068000875 0.0075346464 -0.11008671 -0.15205087 -0.0861559 -0.07953727 -0.116672136 -0.02230761 -0.0088392645 0.07481641 0.06277629 0.17035004 0.13071924 0.0416765 0.12269471 0.08183962 -0.006451795 0.10149318 0.0031575197 0.11891744 0.13981159 -0.011827527 0.057229042 -0.10024218 0.05814619 0.07616191 0.057089917 -0.05652631 0.15854828 0.067132354 0.009266274 0.042354397 0.046651706 -0.14545307 -0.038706914 0.04882636 0.0594761 0.070884354 -0.17126782 -0.1182659 -0.1881347 -0.039459772 0.060601506 0.020830823 0.017010849 -0.08325952 0.013085553 0.005109205 0.015007082 -0.0045383526 0.049338516 -0.045379985 -0.15256917 0.048554026 -0.12668109 -0.081387796 -0.0053388635 0.006072102 -0.03013743 -0.02569167 0.053534165 -0.027807033 0.05523262 0.019687861 0.03036999 0.046366323 -0.09553471 -0.08241697 0.0006256389 0.024276504 0.008323842 -0.028314913 -0.005258045 -0.023460606 -0.11367605 -0.09667945 -0.045645986 0.005222916 0.0071816733 -0.02346595 0.005697614 0.03474154 0.0094303535 0.020914687 0.014911193 -0.0056588897 -0.008210526 0.0316981 -0.0119821625 -0.015115717 0.010614864 0.022202473 0.0061873123 0.012911076 0.0073777004 0.041244924 0.008697212 0.034135327 0.004817576 0.005478086 0.011572191 -0.0068014674 0.03024343 0.011553333 0.14386506 -0.0023271122 0.052066926 -0.03023457 0.07855999 0.010640236 -0.091022864 -0.17065576 0.084200025 -0.024671262 -0.09758146 0.10194797 -0.041366495 0.0391208 0.044717327 0.023717418 0.075343065 -0.011138411 -0.07867611 -0.011917535 0.04012489 -0.06079743 0.0041285353 -0.054432448 0.029837707 0.105286434 0.014304203 0.022467352 0.034214526 -0.08944053 -0.065198146 0.031901453 0.12975992 0.13751414 -0.1087981 -0.04519019 0.055831168 0.14712617 0.076491676 -0.077610314 -0.0771311 0.05944535 -0.15004362 -0.14325027 -0.06583886 0.025969874 0.0031241893 -0.09206061 -0.033318438 0.06663902 0.15183221 0.18045498 0.050888468 0.12648535 -0.11505319 -0.045854967 0.010832572 0.0032714761 -0.074781775 -0.09461918 -0.05304419 -0.20479509 0.053629484 0.10054713 -0.12346572 -0.017263245 -0.059477754 -0.079672635 -0.16277772 -0.041034315 -0.023850618 -0.06786664 -0.12251649 -0.17683524 0.08392902 0.053214967 0.13809015 0.09404839 0.05497409 -0.043748114 -0.06946367 -0.07578426 -0.0712739 -0.040723305 -0.15601972 -0.013718638 -0.10948513 0.058003124 -0.0060806363 -0.003058052 0.11217167 0.08040133 0.11142969 0.060604665 -0.036616903 0.12833901 0.06536626 -0.023295358 -0.029688684 0.08338999 0.038344182 -0.041313436 -0.08148608 -0.022029348 0.106212154 -0.0029263727 -0.04436741 0.055641893 0.11707627 -0.025778625 -0.056725 0.03541543 0.083538376 -0.04030052 0.007232737 -0.08722968 -0.1509306 0.019060083 0.09091946 0.05013891 0.08569958 0.04291044 -0.02648607 -0.008437553 0.050829563 -0.07836225 -0.049329333 0.1031716 0.15747812 -0.0022041332 0.0989513 0.038384628 0.029346863 0.13229147 0.11546121 0.035471212 -0.08913929 -0.04968377 -0.28106746 -0.023452386 -0.1601726 0.010130574 0.102625914 0.037864383 0.033216327 0.079451635 0.032548808 -0.036472794 0.12373074 -0.09748252 0.10631943 0.05189892 0.024176762 0.042217772 0.121712655 0.048113625 -0.00023446103 -6.8682093e-06 0.086754434 -0.094492726 -0.07352887 -0.021874372 0.027344149 0.028092753 0.08179014 -0.012575854 -0.01623669 -0.057674985 -0.033305727 -0.019341316 -0.017472964 -0.059412032 -0.017959924 -0.008538852 -0.06728565 0.049520176 0.07635724 -0.0022494933 -0.07985958 -0.08020285 -0.01559178 0.14006758 -0.081823155 -0.042662118 0.1011598 0.15248205 0.09150363 -0.07174194 -0.063242525 0.09973195 0.110375285 -0.038807753 -0.14092495 -0.253417 -0.09304318 -0.09310521 -0.18678671 -0.1384601 -0.12941906 0.046924017 0.1591382 0.062595405 -0.025614033 -0.017067494 0.28710964 0.065887794 0.059998162 0.13815722 0.03652863 0.034870148 -0.01401946 0.047618914 0.025830535 0.081208356 0.1468674 -0.017130159 -0.042124357 0.035597425 -0.010300786 0.12015099 0.031580478 -0.050668165 -0.020107737 -0.0334108 0.113755725 0.09218242 0.008596643 0.020518526 0.07669814 -0.16408053 -0.057269663 0.20935173 0.16484906 0.044793762 -0.041770414 -0.110062905 -0.020683035 0.004230668 0.076817386 0.103948615 0.06322314 -0.089857966 0.0072805216 -0.09182412 -0.05466859 -0.08099581 -0.09833225 -0.11868056 -0.22551143 0.14911982 0.09868484 -0.1786746 -0.1309205 -0.02844717 0.00979408 -0.09773969 -0.03201 0.048803385 -0.083096996 -0.059197504 -0.18216033 -0.10664886 0.10926275 0.0958793 0.013541201 -0.081269115 0.03808073 0.051878884 0.030302651 -0.034910187 0.0051542222 0.11060096 -0.08354004 -0.04157527 0.09824013 0.10263905 0.015412343 0.022749592 0.048059538 -0.0073336544 0.062333096 0.18946828 0.09140538 0.029432725 0.051395502 0.07659241 0.059575412 0.005035433 0.032404825 0.02152505 0.016859239 -0.0033876637 -0.0279634 -0.0439297 -0.0024486172 0.022994066 -0.06272952 -0.02333449 -0.0896499 0.1698188 -0.05575716 0.045608815 -0.047975767 -0.10225982 0.06993265 0.1774432 0.020117685 0.08147068 0.033474535 0.17028567 0.19080153 0.06051258 -0.058091998 0.0038939232 0.18449457 0.11923094 0.03884558 -0.070051715 0.057894863 0.2014032 0.06009042 0.033716407 0.017391913 0.026760422 -0.032518666 -0.02946267 -0.051416755 -0.08537993 -0.008238445 0.009987676 0.074248664 -0.034246292 -0.046333 -0.008749122 -0.04747469 -0.0064861807 -0.06009855 -0.01918413 -0.032991067 -0.059810217 -0.017239511 -0.0055948505 -0.032470737 -0.0046553737 0.006334517 0.023369921 0.03275952 0.0053122146 0.042566914 -0.035009407 -0.079325415 -0.0020614003 -0.0010163949 0.010824041 -0.056766268 0.033967115 0.008919046 -0.082275435 -0.012058961 0.04023322 0.0034638487 0.0007418654 -0.046844788 -0.046775028 0.02264834 -0.025267262 -0.02996009 -0.06634902 0.0033555212 -0.040425893 -0.016839469 -0.044509243 -0.06751017 -0.05545582 -0.017588798 -0.008399498 -0.03577325 0.01075872 -0.030594055 0.01972157 -0.024673566 -0.029961126 -0.006390892 0.027334308 -0.0020158573 -0.018286614 0.02805103 -0.041714408 0.0042668395 0.021616641 -0.029366642 0.0002422668 -0.008862779 0.017285675 0.019080278 0.021810386 -0.0082452595 -0.02945462 0.0057625547 0.014377491 0.018642707 0.024638008 -0.004239703 -0.058750596 -0.053713527 -0.05192334 -0.07184145 0.03266999 -0.009132947 -0.06623841 -0.076038 -0.01113192 -0.028092263 -0.0046364577 0.02397974 -0.0012878041 -0.007148978 -0.017289465 -0.029521327 0.031572513 0.0013106433 -0.009896939 -0.0743884 -0.06791488 -0.028615635 -0.0708576 -0.01567556 -0.038507055 -0.019588774 0.03387555 -0.019268556 0.020715455 -0.004864022 -0.039520584 0.0037024703 -0.026075749 -0.03099705 -0.024293285 -0.0044572055 -0.02213602 -0.047073387 0.0021720894 -0.030919062 0.02764629 -0.012012873 0.012432218 -0.023641223 -0.010446523 -0.011134389 -0.04288548 -0.067180365 -0.001855051 -0.008728388 -0.00016575948 -0.012313216 -0.040253192 -0.027169779 -0.018226607 0.026049 0.006596776 -0.08365884 -0.04247814 -0.011506904 -0.03185365 -0.019820165 -0.028906396 0.013821463 0.033701785 0.0037299497 0.0026407444 0.03208541 -0.0430599 -0.016275993 0.030955719 0.0062574856 -0.03490672 -0.020328047 -0.008360103 -0.02622016 -0.031067155 0.009596926 -0.025807956 -0.043912806 -0.05143109 -0.056500603 -0.0032153314 -0.059081055 -0.00034527486 0.016859593 0.017993 -0.0602997 -0.051753085 -0.015670361 -0.03378668 -0.0026298333 -0.056226924 0.015882587 -0.03546756 0.0018625994 -0.026882682 -0.07397803 -0.069758564 0.009981445 0.029002612 -0.04431935 -0.082165435 -0.013157371 0.020619657 -0.0349766 -0.0014350549 -0.0716234 -0.042114984 -0.035125475 0.014753494 0.0014087243 -0.07042243 -0.08819305 -0.034536395 0.0028807921 -0.05594422 -0.014200027 -0.044939935 0.0015173499 0.057476718 -0.07611568 -0.054841865 -0.016157825 -0.058568798 0.025386449 0.036265988 0.009573292 0.023904385 -0.035928667 0.007432629 0.0010159102 -0.0396503 -0.039199974 -0.017979944 -0.024063809 -0.044464633 -0.021839218 -0.048429396 0.0072381683 0.03466777 -0.041130416 -0.011469476 0.0017713894 -0.026756747 -0.008461301 -0.021298077 0.01236473 -0.024055319 0.05421124 0.05202414 -0.03246168 -0.043524176 -0.06411113 0.058944993 -0.049970344 -0.07593194 -0.046724644 -0.057821885 -0.0004301935 -0.004415999 -0.07790998 -0.007830659 -0.007716761 -0.04344085 -0.05316942 0.050306816 -0.015164669 -0.030914413 -0.034011316 -0.049137525 -0.008073219 -0.023430416 -0.01233527 -0.067252666 -0.050191168 -0.039579522 -0.016001 -0.03439997 -3.8740833e-05 -0.011575323 -0.010300441 -0.008631595 -0.03618499 8.831259e-05 0.0118179945 -0.016295876 -0.026691718 -0.0891602 -0.050696865 0.018926768 -0.04076969 -0.011948119 -0.027084583 0.027754463 -0.06450836 0.064743064 0.006514199 -0.044608954 0.0036107064 0.018440655 -0.027503897 -0.07247977 -0.05641382 -0.02457009 -0.012692372 -0.021597674 -0.068747334 -0.016133478 -0.033950537 -0.048923645 -0.014083891 -0.068896644 -0.057958167 -0.07043364 -0.05692716 -0.037413146 -0.013744441 0.014722256 0.013419023 -0.013458568 -0.055894412 -0.049832728 -0.072510265 -0.054563165 -0.052231696 -0.0017177925 -0.004517841 0.0029611683 0.034032635 -0.026610125 -0.016793827 -0.08296494 -0.07155191 0.018575544 0.0025913233 -0.02985334 0.01976021 0.005466545 -0.007709507 0.020206371 -0.019735387 -0.014531548 0.033537798 0.022889081 -0.0018576129 -0.03831857 -0.021994554 -0.042988393 -0.032834165 0.027640767 0.06762861 -0.052531704 -0.003645531 -0.012827603 0.010057741 -0.03836116 0.0019588128 -0.026202835 -0.0036110785 0.045000125 -0.0486098 -0.015125514 -0.000405385 -0.0046115024 -0.031904694 -0.026126519 0.019808646 0.027519949 -0.010289389 0.052268658 -0.026221454 -0.008914201 -0.030497875 0.024385178 0.034027535 -0.03829064 -0.021775892 -0.041157283 -0.050672516 -0.0619254 -0.039131664 0.03604704 0.035412557 0.02108815 -0.034138545 -0.029815625 -0.051722415 -0.07790153 0.0054721897 -0.027567448 -0.026271995 -0.042822246 -0.048630886 0.03256442 -0.01262419 -0.02344893 -0.024033252 -0.022952251 -0.0090426635 -0.045762837 -0.0030299034 0.062401406 -0.047209106 -0.060536932 -0.06942598 -0.049138572 -0.08707096 -0.03588303 -0.08530088 -0.05746555 -0.07868275 0.022609374 -0.05000192 -0.025319424 -0.04087735 -0.070605464 -0.021084776 0.060751453 -0.036146767 0.008679016 0.00673439 -0.016326187 0.018288324 -0.017383205 -0.003572901 0.007991546 0.010867343 0.028920844 -0.022794884 0.010507124 0.025071684 -0.014601543 0.03228392 -0.0022238942 -0.033370234 -0.016952896 0.0021105162 -0.034713395 -0.025352022 -0.04918526 -0.020978894 -0.01064858 -0.029927194 -0.037107397 -0.020479241 -0.043243952 0.010420809 -0.034650337 0.022812514 -0.0133361975 -0.046133295 0.027246537 -0.031246029 0.0032523249 -0.017064977 0.018041383 -0.00062932784 -0.004793127 -0.008473587 -0.043868974 0.008173065 0.016969837 -0.037976734 -0.024535524 0.033094894 0.008875289 -0.039658725 -0.042980902 0.021200025 0.01846037 -0.037432402 -0.035602476 -0.031961475 0.038053587 -0.011394346 -0.029709538 0.001039928 -0.034472737 0.022218732 0.03738193 0.046641726 -0.0163246 0.0041465834 0.018931847 -0.01472418 0.014194777 0.030837659 0.0231608 -0.02685011 0.01840093 -0.019970443 -0.027252253 -0.015129129 -0.039335284 -0.01633606 -0.031213844 -0.0403003 0.009996949 -0.018988118 -0.011134413 0.02985525 0.034847002 0.005922218 -0.028800912 -0.035339687 0.017332658 -0.031617474 0.0071166763 -0.015895596 0.026519014 -0.029725999 0.026891747 -0.020297708 -0.021935733 -0.022829277 0.004764377 -0.046090286 -0.041863013 -0.02881756 -0.03358145 0.0041055814 -0.03571833 -0.026852287 0.024237119 -0.017032571 0.015954262 0.008064794 -0.0056757247 -0.011497979 -0.04414167 -0.017541917 -0.0076454044 -0.03296962 0.03345765 0.022661578 -0.031927124 -0.008334115 -0.035565823 0.023093026 -0.04199348 0.01690309 -0.01700455 0.011283543 0.026742214 0.026124021 -0.036898572 -0.019699994 -0.0040387926 -0.04281283 0.008202579 -0.027095586 -0.013217941 0.0037081942 0.033760127 0.027511002 -0.03561274 0.033390533 -0.033121668 0.025977425 0.007769002 0.028242974 -0.02058023 -0.01827777 0.003753981 0.013011856 -0.026630566 0.008211337 -0.035588305 0.027470818 0.02726224 0.022315118 -0.023681493 0.0061370186 0.010654676 0.007324193 -0.028023988 -0.010837483 -0.024937656 0.0113769835 -0.036586866 -0.021477515 -0.028682604 -0.004439405 0.0111118145 -0.021689422 0.026885577 -0.04388952 -0.034317408 -0.011542998 -0.0026456444 0.025083201 -0.012904729 -0.042087592 -0.01667078 0.025507769 0.01577528 -0.012066165 -0.02271454 0.022026824 -0.023706302 -0.049592733 -0.037642963 0.011961194 0.032805137 0.0060738167 -0.0088755 0.015091749 -0.031907454 -0.0309883 -0.010654134 0.022128122 0.014663317 0.01743053 0.0046083243 -0.014076632 -0.0008297822 -0.0508278 -0.045674775 -0.045099515 -0.033047065 -0.02604775 -0.05109427 -0.04410304 0.030390246 0.026063586 0.0187551 0.004736089 0.041106917 -0.021301309 0.0036193712 -0.018844776 -0.0339873 0.016927468 -0.037721686 -0.04466486 -0.037861783 -0.039275657 0.00700316 0.015337412 -0.044022072 -0.04878679 -0.021681255 -0.028189763 -0.046046413 0.00513341 0.0009664392 0.013908676 -0.008969635 0.03129274 -0.012359359 -0.038436286 -0.04169358 -0.040541142 0.0062041706 0.006423068 -0.00035589313 -0.026771653 0.0046208207 -0.01607511 -0.04056279 -0.030838415 0.01909813 -0.007119275 -0.018723037 -0.035448126 -0.010031549 -0.011765757 -0.012263894 -0.028818479 0.017219521 0.03741147 0.016300403 -0.0038837162 -0.03811079 0.00087213516 0.038327 -0.0010518454 -0.02896897 0.0104628615 0.035790157 -0.042240098 0.004596098 0.040041823 0.033303667 -0.003753148 0.009160537 -0.012184849 0.006962575 0.019226685 0.010630727 0.009435817 0.02731874 0.018687708 0.037241563 0.012226172 0.03270676 0.0027645687 0.010396022 0.0099239275 0.0077750282 0.013506895 -0.026147272 0.023292249 0.0146977035 0.024653891 0.0027948038 -0.021265132 0.017642522 0.0076067178 0.012193828 -0.045329973 0.012098557 0.025121555 0.009642952 -0.011476432 -0.005382149 0.011026476 0.009581305 -0.023072273 -0.015660571 -0.02757061 0.0010499185 -0.026393674 0.012109288 0.019136658 -0.002868119 -0.034921266 -0.027031725 -0.015090451 -0.0369658 0.035353392 -0.037005056 -0.040931124 -0.035258293 -0.020439973 0.026906712 -0.03917559 -0.033029445 -0.015651735 -0.0049286243 -0.010178411 0.009510186 -0.031952415 -0.028393788 0.02673861 -0.03947269 -0.042924985 -0.04533117 -0.00071021356 0.008439088 -0.024903204 0.015619314 -0.044445127 -0.034494672 0.004272526 -0.026605207 -0.0026547287 -0.0077644074 0.015298432 -0.01183275 -0.041470803 0.012441469 -0.048965998 0.027878052 0.021000724 -0.013645846 -0.038235147 0.03101248 -0.017839901 -0.019214807 0.00521809 -0.02774347 -0.006274868 -0.009105779 -0.03190409 0.039012413 0.0070870225 -0.015731048 -0.024369057 0.023134293 0.016718196 -0.028202992 -0.003050459 -0.0037702147 -0.032685056 0.0070744855 0.0019537276 -0.032472063 -0.020320047 0.028732225 -0.040838 0.007233889 -0.0021513884 -0.032949 0.012385483 -0.038871173 -0.025193892 0.0006134685 -0.022347365 -0.028775485 0.019586427 0.028229497 -0.04082848 0.020487191 -0.031596553 -0.035528865 -0.02253955 0.0010773635 -0.031646963 0.029202161 0.016384292 -0.0344641 -0.0027830806 0.023506239 0.0098392 -0.03612163 -0.04839343 -0.028453082 -0.023094138 -0.019898303 -0.040248267 0.15099674 0.040593255 -0.011391123 0.0056768735 -0.22284222 0.060682755 0.033178113 0.024320967 -0.0003771018 -0.122286126 -0.015730936 0.023149896 -0.112838686 0.05454759 -0.028050596 -0.056545723 -0.004271899 -0.0033613923 0.037981793 -0.040334135 -0.076462016 0.01829608 -0.111190654 0.1290185 -0.2619808 0.0053411783 0.15434009 -0.042933483 -0.20825882 -0.113342874 0.06361571 0.12307994 -0.11909381 -0.14499278 -0.185863 -0.12087496 0.05238305 -0.103005804 -0.25984406 -0.18874145 -0.08490151 0.03030908 -9.635923e-05 -0.26424333 -0.16594416 -0.13792878 0.032502834 -0.12403302 -0.14823845 0.0024480454 0.057505418 -0.036002006 0.031088714 -0.030800585 0.025549166 0.038419727 0.03325699 -0.03677465 -0.008735273 -0.012350763 0.037811745 -0.0113638025 0.023128483 -0.009971354 -0.028503265 -0.007371129 0.018190905 -0.0039709695 -0.02196137 0.053410176 0.04313466 0.0045459643 0.0068122186 0.015444312 0.12862036 -0.027083006 -0.01398923 -0.034004204 -0.0056218333 0.21644346 -0.13359399 0.0065365788 0.06773961 -0.039396994 -0.026834209 -0.1104611 0.09480989 0.023908265 -0.07613743 0.13219948 0.11532029 0.08861229 0.15271482 -0.1315743 0.056934193 0.20212309 0.1101233 0.07593227 -0.2671929 0.108023584 0.0793751 0.097261146 0.02923624 0.055827048 -0.060386896 0.03419536 -0.02926922 0.056187972 0.1251461 -0.06881586 -0.04473521 0.15066652 0.0725713 0.1337369 -0.069093645 -0.13347086 0.061511382 0.12718883 0.2128028 -0.053938817 -0.0132998945 0.020581845 0.023843871 0.1191484 0.022572337 0.032261435 0.081885256 0.014680303 0.099332206 -0.09361112 0.0060447273 0.09423665 -0.058704443 -0.030823722 -0.06701029 0.0055264467 -0.044117395 -0.06272344 0.10217282 -0.10044853 -0.09187148 0.083770834 0.06559581 0.039454848 0.040085252 0.012662667 0.13096537 -0.047181796 0.009064222 -0.023047272 -0.027858699 0.10445423 -0.030295052 -0.09767676 -0.103817075 -0.12995183 0.0709736 -0.07204996 -0.071717225 -0.09560824 0.0075925705 -0.18807843 -0.16114613 -0.20114301 -0.07557762 -0.069531225 0.03337105 0.03463271 0.21421383 0.13366042 0.12937042 0.13136056 0.056274943 0.11953314 0.069128424 0.032626837 0.009984075 -0.18424664 -0.005249516 0.07567918 0.008417689 -0.058718197 0.03172135 0.056011938 -0.027051004 -0.043599725 0.012117266 -0.055276647 -0.028400378 -0.112427935 -0.08498824 -0.1189188 -0.073424175 -0.012348845 -0.12120528 -0.11428374 -0.062421467 0.00056666817 0.15345435 -0.12832926 -0.0187665 -0.004519851 -0.11028813 0.0443612 0.1456057 0.10701136 -0.027743103 -0.1436081 -0.23489873 0.12865077 -0.06911349 -0.08220286 -0.22757895 -0.3187836 -0.002289365 -0.105777755 -0.18342301 -0.20136276 -0.08368797 -0.14457785 0.017183691 0.092706956 -0.026226461 0.049464222 -0.05694425 -0.024455266 -0.15539987 -0.25902092 0.055603188 0.054091588 0.029958012 -0.030442143 0.04968975 0.065800264 0.07870258 0.20816301 0.095107526 0.17228211 0.09083978 0.041828886 0.065957695 -0.011409305 0.050991297 0.0803081 0.15062968 0.19201769 0.21450397 0.020618584 -0.09351426 -0.01702094 0.21845087 0.14012483 0.12896544 0.011885771 0.06601326 0.16971724 0.023526946 -0.06266561 0.05031832 0.04907452 -0.06305778 -0.10479869 -0.004481498 0.2549415 0.034521252 0.07899947 0.098037794 -0.063432366 -0.0063198125 -0.18112758 -0.029934244 -0.01828325 -0.048242062 -0.06280528 0.07030424 -0.0035525688 -0.100195736 -0.20496288 -0.039545152 -0.03803356 0.0673152 0.019544214 0.03617554 -0.015133865 -0.013903049 -0.019371532 0.054832347 -0.032114577 0.032156125 0.022106435 0.031362407 -0.023240646 -0.021527277 0.013600568 0.09363576 0.021867359 0.023588892 -0.04829165 -0.01672509 -0.014292341 0.025964973 -0.01689844 0.029366288 0.08132427 -0.08345329 0.032613944 -0.02980676 -0.033366203 -0.025330441 0.08709267 -0.03911372 0.100738004 0.15783694 0.1356139 0.1374117 0.022384703 0.14155805 0.119726725 0.03759545 0.13620995 0.05072166 -0.019961353 0.011865738 0.051602867 0.08849274 0.1927781 0.027427757 -0.10037778 0.16267918 -0.16515343 -0.023309978 0.04705678 0.16149229 0.04829335 -0.097313136 0.069760546 0.15353566 -0.004196683 0.10383978 -0.11937698 0.021879323 0.036366627 0.12658998 0.0014117848 -0.10789583 -0.091512024 -0.047111858 -0.0062688966 0.22801203 -0.09623707 -0.12118608 -0.04522228 0.07381429 0.05408018 0.0316044 0.01041672 0.0932395 0.07143638 0.01704971 0.08944667 -0.024074003 0.056669068 0.009529384 0.18746704 0.0639547 0.17872596 -0.027652258 0.022360971 0.07042595 -0.016572319 0.046898223 0.036795903 0.014095833 0.07511953 -0.06461982 0.0061735753 -0.10268305 -0.035919372 -0.19124907 0.013731184 0.07402211 0.017149175 0.012355537 0.023480862 0.069965474 -0.14622734 -0.0149924 -0.009799591 -0.006229402 0.07353876 0.032088317 0.019471416 0.040201955 0.22026621 0.2576898 0.16846268 0.25382242 0.11257803 0.16145423 0.012576742 0.016241986 -0.0018409141 0.0069441334 0.021899767 0.03218347 0.023419958 -0.011013537 -0.0023934138 -0.022495087 0.021469824 -0.024254244 0.00196635 -0.024757696 -0.024589092 -0.042753138 0.01986494 0.03246448 0.027390793 0.0014095445 0.036283754 -0.021393077 0.028649552 -0.0050504827 -9.081262e-05 0.008425138 -0.04747462 0.031932935 0.03515737 -0.025024012 -0.005146999 0.030440599 -0.02147979 0.02814081 0.009282424 -0.018677529 -0.0465135 -0.021639813 0.00495703 0.031585265 0.047105193 0.031252168 0.024060862 -0.040398564 0.0066399947 0.025866505 0.0034685875 0.023671303 -0.020868357 0.016090747 -0.010036497 0.0143224485 -0.01125923 -0.028571373 -0.008523478 -0.019250598 -0.015233866 0.023398142 -0.035207268 -0.013310859 -0.016668607 0.01852137 -0.0071680136 0.022842735 -0.013542181 -0.031005323 0.013290163 -0.033293147 -0.018738516 -0.016389744 -0.044291496 0.018626682 0.0018108166 0.0030331602 -0.0041206703 -0.039309513 -0.0003753927 -0.015273769 -0.030792816 -0.00073856 0.016029337 -0.03444176 0.006262806 0.033051357 -0.0042062877 0.02344546 0.032865133 -0.021343924 -0.027842617 -0.026149489 -0.012461309 -0.011850168 0.0174154 -0.045770414 0.008215574 0.0210816 -0.007690993 0.026266001 -0.038679007 0.026706178 -0.006694256 0.027856423 -0.01812984 -0.028419262 -0.009730801 0.0013438374 -0.005909105 -0.042083673 0.014579515 -0.027163923 0.022488689 -0.025842836 -0.018692596 -0.045135256 -0.019845854 -0.038743317 -0.014831761 -0.017234067 -0.020087807 -0.041280337 -0.04074256 0.02551838 -0.027673678 0.021975042 -0.0034073272 -0.010927307 0.018593729 0.028416822 -0.049416307 -0.0048413994 0.0026713377 0.010481778 -0.01560247 -0.038872775 -0.017113227 -0.021041548 0.01434347 -0.021105582 0.023415446 0.0026490532 -0.012837338 0.032789852 -0.04367911 -0.045582265 -0.01846431 -0.0051059006 -0.014484747 0.0071966457 -0.0069856257 6.313698e-05 -0.046308648 -0.019183673 0.01196864 0.02747562 -0.010031356 -0.02223428 0.0065763295 -0.016383026 0.008702855 -0.01888055 0.013136626 -0.0028307808 -0.0151312435 -0.036700483 -0.023010015 -0.04162813 0.0037962766 -0.04391611 0.033233438 -0.043932237 0.015111478 -0.0066665984 0.010685737 -0.0051105535 0.022113416 -0.02145857 -0.028428877 -0.044883426 -0.043658704 0.016785735 -0.028953115 -0.030767772 -0.043350577 -0.01921455 -0.0076199123 -0.00113769 -0.0015270176 -0.04699038 -0.036031954 0.00017838972 -0.01727867 0.00946498 0.018147195 0.031481244 -0.046166487 0.01161042 -0.017998295 0.01313593 -0.0049185087 -0.028300287 0.0010512889 -0.0011606376 -0.016216444 0.009347581 0.03998047 -0.011784677 -0.01784072 -0.003197997 -0.026182732 0.023831107 0.014429686 -0.048262678 -0.032895677 0.0079580145 -0.008626272 -0.0330051 -0.0052305637 -0.0038402614 0.019049048 -0.0067082657 0.028090712 0.019995488 -0.045513242 -0.021071235 -0.04337727 -0.0054042717 0.0016689908 -0.0026481275 -0.034491695 0.011298616 -0.03067096 0.00037271832 -0.009471208 -0.045669235 -0.0016314612 0.024559198 0.025818251 -0.0194137 0.042723093 -0.03417253 -0.010384921 -0.00464715 0.018393964 0.0031141678 -0.013601093 0.019003257 -0.029047312 0.010743652 0.0014042732 -0.01682043 -0.013280684 -0.044628534 -0.029238824 -0.010473623 -0.026615527 0.021886379 0.022707975 0.03754289 0.036458366 -0.036273547 -0.008745384 0.0055681863 0.009588629 -0.038355317 -0.026360907 -0.02432169 -0.0139416605 -0.009064451 0.020117814 0.0045162365 -0.035593193 -0.027752813 -0.024094773 0.0071276478 -0.0032700906 0.015191008 0.009673167 6.5293294e-05 -0.01595089 -0.02421033 0.03036193 -0.008891105 -0.024460455 -0.026062975 0.006602941 -0.03776489 0.019714765 -0.040718492 0.0006642434 -0.027225116 -0.0033848013 -0.028192015 -0.03214822 0.028900428 -0.013348405 -0.046474744 -0.041295484 -0.018841552 -0.017477538 -0.042157426 -0.039743785 0.008840493 -0.03582213 -0.037729148 -0.010123265 0.011374916 -0.03266604 -0.028325045 -0.016761301 -0.044205192 0.017543545 -0.028788764 -0.030612264 0.005292436 -0.0248984 -0.035607148 -0.04101263 -0.012976625 0.0042711543 -0.03515213 0.011365194 0.023840519 -0.029233212 0.035033178 -0.053212263 0.0052132043 -0.018018907 0.033332873 0.021822361 -0.018367339 -0.025885195 -0.043337304 0.01262307 0.029572658 -0.032834396 -0.04286298 0.010856221 0.015921261 -0.020563833 -0.022632586 -0.03620715 -0.04654726 0.012421689 0.0317353 -0.01347198 -0.028903848 -0.026841119 -0.005007873 0.013222476 0.01932724 0.050867386 -0.025359575 -0.013334456 0.0023685081 0.012020394 0.027007498 0.015482354 -0.025005292 -0.04095824 0.022143427 -0.0052257674 -0.02427753 0.04158688 0.013337201 -0.0025999448 0.014689704 -0.044233754 -0.010647297 -0.04577592 -0.0018100456 -0.0025452354 -0.0051597147 0.020915134 0.005383518 -0.046681646 -0.0034853865 0.018651329 -0.028741326 -0.023669356 0.016734965 -0.049676657 -0.03181545 0.023985395 0.019922998 -0.025977828 0.03444189 -0.042112373 0.024827655 -0.011253245 -0.0036867205 0.024504906 -0.008511286 0.024690077 0.017954307 0.013443229 0.0040875967 0.003616483 -0.0394939 0.0040270616 -0.03400504 -0.11790298 -0.013379197 -0.041350618 -0.029433042 -0.07865391 -0.073271185 -0.039062124 0.061331674 0.06481156 -0.011665726 -0.012256825 0.060026914 0.0016512577 -0.0019299597 0.08347283 0.20798464 0.05232111 -0.07448623 0.04674063 -0.07117302 0.08785566 -0.043481063 -0.07940985 -0.07706992 0.08743448 0.073142335 -0.042984534 -0.06329718 -0.0893514 0.03642843 -0.00064180786 -0.0064660944 -0.064701445 0.0051447623 0.06279229 0.0732663 -0.010916311 0.021458736 -0.027540183 -0.0039635934 0.1334261 -0.030780278 -0.10019717 -0.016211763 -0.007810382 -0.076824464 0.046416823 0.02061527 0.019334199 -0.04723362 0.016132083 -0.0067334333 0.034690347 0.0095757125 0.0076475283 -0.02415159 -0.00836476 0.00090926065 0.0029284165 0.038266435 0.046044823 0.025027389 0.011139057 -0.029205319 -0.006218355 0.047946475 -0.015524004 0.008252898 -0.028300477 -0.018058544 -0.06422752 0.008467265 -0.0322036 0.025110664 -0.022508724 0.1249368 0.059514645 0.040219057 0.023595082 0.0013280243 -0.23355025 0.022189172 -0.06868426 0.06134322 0.047096245 -0.21565743 -0.037579965 -0.09689921 -0.10318683 -0.075299926 0.08957531 -0.00033686095 -0.113796644 -0.12893614 0.018916273 0.028969152 -0.23464584 -0.034333255 0.20090736 0.056321863 -0.10178503 0.029158918 0.0057811677 0.010263808 0.031461205 -0.07691891 -0.054405212 0.022893913 -0.0104723 -0.13233832 0.05180851 0.23237348 0.024751373 0.03811119 -0.08261668 0.19546412 0.00029699257 -0.19178712 -0.044484317 -0.028768342 0.033888076 -0.07433733 -0.022270745 0.10257866 0.13770548 0.037241556 -0.020918865 -0.068786845 -0.039840117 -0.055509824 0.028477466 -0.10243468 -0.056656435 -0.010486 -0.11210262 0.07240482 0.11946967 0.024805225 -0.033140037 0.020693302 0.08708326 0.106193684 -0.17614947 -0.11216297 -0.038496852 0.033685133 -0.011069561 0.0068512186 -0.0040431907 0.15886302 -0.020156667 -0.016419524 -0.07706058 -0.076384895 -0.17163002 0.055901572 -0.016425237 -0.0847757 -0.116708875 0.07783623 0.14206134 0.101115145 0.18949723 0.11710677 -0.014507738 0.07187142 0.0048413896 -0.072550066 -0.18862486 -0.07962569 -0.061917786 0.006397991 -0.09642856 0.036245037 -0.023202756 -0.02268087 -0.010255352 -0.07673883 -0.018116338 -0.07170818 -0.08926773 0.06998443 0.06538102 0.040844236 -0.09390471 0.032632153 0.009311382 -0.030744884 6.1340426e-05 0.11221627 0.06845112 0.015657678 0.003223579 -0.048037145 0.046262316 -0.031951677 -0.041295275 -0.05597371 -0.07759633 0.0508717 -0.012076483 0.051078144 0.0049302545 0.011798533 0.056210585 -0.043968875 0.009937424 -0.06464938 -0.05476318 -0.1345133 -0.068221085 -0.086076066 0.005603505 0.030451111 0.0024188037 -0.07412457 0.028991243 0.09065927 -0.0067879227 0.053428918 -0.027579492 -0.049442783 -0.0982929 -0.025998276 0.0648134 0.22170165 0.24468733 0.07773307 -0.016069084 -0.07887757 -0.13891529 0.01731222 0.12820743 0.130657 0.103842854 -0.29681075 -0.0527835 -0.12806733 -0.15597521 -0.08929651 -0.025999177 0.007814545 0.007869915 0.056909703 0.09646744 0.05321643 0.022446549 0.11779397 0.10956147 -0.040446002 -0.17798868 -0.22842228 -0.1422303 -0.1365027 0.20210116 -0.15715477 -0.15618205 -0.09589657 -0.10188599 0.11808246 -0.07906945 0.1567053 -0.1433105 0.09877956 0.020178225 0.08551946 0.09782594 0.25074893 0.20174491 0.2521802 0.08912815 0.09320078 -0.14543526 0.014118829 0.1210508 0.08005182 -0.1203009 -0.14545436 0.054120872 0.01848614 -0.17742518 -0.0330301 -0.006115815 0.006350851 0.0047569885 -0.32750928 -0.14701578 -0.1290071 -0.17400526 -0.07243241 -0.117626436 -0.043394197 0.033047054 0.065034755 0.0075521204 0.026520293 0.04323546 0.107770644 0.06215483 -0.055029463 -0.15709218 -0.022794565 -0.021554822 -0.0060404656 0.011391096 -0.27201548 -0.08436657 0.0028257126 -0.018903024 0.018269252 -0.11908052 0.048288476 -0.01987516 0.06365334 -0.1642986 0.11503672 0.1508103 0.15690805 0.18949334 0.080236934 0.021372762 0.0944035 0.12186072 -0.05469871 0.065283515 -0.21354629 0.01531728 -0.040938593 -0.06802662 0.10219617 -0.18795308 -0.08600655 0.025546879 0.11034696 0.08333129 0.033315584 -0.008688896 -0.04641261 0.03694328 0.05282394 0.08421991 -0.017326767 -0.08949834 0.11381242 0.047091674 0.007263092 0.035350863 -0.016579837 -0.06301436 0.03148269 -0.03714375 -0.18226004 -0.08882758 0.02100971 0.26936832 0.07313576 0.034799565 0.0470804 0.008170922 -0.044722423 -0.15258606 -0.104655504 -0.1215299 -0.20185116 -0.28150588 -0.08162961 0.034955133 0.14004815 0.11623024 -0.07120412 0.049622387 0.06259335 0.066374466 -0.085000314 0.00988102 -0.1896639 -0.14425832 0.012729221 -0.04388314 0.04230611 -0.0037479436 -0.0053668288 0.037128348 -0.09867341 0.20223895 -0.31042582 -0.12742674 0.029165894 0.122392796 0.07056363 -0.23804657 -0.08370423 0.028170746 -0.1176076 -0.123854056 -0.0077559524 0.10290835 0.15412833 0.06524177 -0.11961845 -0.019554688 -0.014746415 0.0014102171 -0.071316496 -0.04370339 -0.014614502 -0.06449326 -0.024676856 -0.023153083 -0.009741838 0.018514857 0.026446372 0.011192473 -0.008171208 -0.003153867 -0.032119926 -0.024459604 0.014336239 -0.0053588874 -0.04285907 -0.0150804045 -0.07231893 -0.052066147 -0.019237434 -0.022043383 0.013527265 0.02049455 0.025912264 0.035499334 -0.044381406 -0.03683133 0.022170816 -0.03494999 -0.022875946 -0.039018948 -0.029517198 -0.018440686 -0.021130012 -0.07197115 -0.02395831 0.019323904 0.009486668 -0.07326572 -0.035753667 -0.044179093 0.026538797 -0.044124056 0.0025238136 -0.018690644 0.008836218 0.027083132 0.009140201 -0.008943666 -0.040988024 0.0082456395 0.019276544 -0.0373462 0.0034970692 0.001966361 0.014838517 -0.0391663 -0.024329547 0.0019189976 -0.010363586 0.03491058 -0.016447252 -0.041787792 -0.004372444 0.025346491 -0.039343998 -0.012072684 -0.021922942 0.0007618852 0.036224183 0.007586684 0.0052616876 -0.011587377 0.008631742 -0.03865881 0.010926362 0.010709254 0.0027000427 -0.023065047 -0.0035330572 1.208613e-05 0.0010464486 0.009319901 0.0030391281 -0.00074479776 0.012394479 0.059025586 0.035845842 -0.047777575 -0.004423554 -0.03230659 0.016496265 0.008816163 0.03110355 -0.05008346 -0.022635266 0.027605968 0.0023535688 0.00053506985 -0.010555795 -0.06858891 -0.013037957 -0.06957331 -0.048578143 -0.06641493 0.028439375 0.008221117 -0.05314004 -0.010124984 0.035658874 -0.029177846 0.0047768843 -0.03283273 -0.022792099 0.020929893 0.004409167 -0.05086293 -0.06702279 0.0069725653 -0.014835804 0.005975548 -0.014627394 0.0025183593 -0.0385185 -0.07483179 -0.042401996 0.016096385 -0.01623342 0.0033393598 -0.020944046 -0.012460938 -0.0172835 -0.0010519245 -0.028529743 0.0023922531 0.03406399 -0.047478635 -0.058212668 0.006786071 -0.032534245 0.023345122 -0.026718903 -0.017759927 -0.024032088 -0.053146236 -0.0047972836 -0.005167439 0.014710634 -0.019001367 -0.05098297 -0.031429455 0.012519716 -0.029445702 -0.05073052 -0.04324815 0.0042145075 -0.05956894 -0.015981145 -0.025281796 0.0016789277 -0.034449797 0.009315002 0.0048815184 -0.068450645 -0.0038177366 0.013824069 -0.004348197 -0.06007337 -0.076205134 0.0039264606 0.007161211 -0.01758603 -0.027681403 -0.04765302 -0.055934705 0.009079542 -0.03547794 -0.05199103 -0.059884816 -0.0582381 -0.0254828 -0.028837727 0.012160985 -0.04898081 -0.016825374 -0.037553713 -0.036379755 -0.0011598992 -0.00052886474 -0.03914601 0.013047344 -0.022121308 -0.039184485 -0.038878262 -0.024081198 -0.03534114 -0.030678451 -0.034819957 -0.039369963 0.0058100475 -0.0043221945 0.030913869 -0.040944256 0.02396033 -0.022568392 -0.05889701 -0.03136619 -0.0089254705 -0.043945003 0.029899541 -0.025612881 -0.046348754 -0.04672086 0.04656209 0.034250475 -0.012763349 -0.03836657 -0.051886585 0.011035079 0.019456351 0.0014541611 -0.03933857 -0.008261253 -0.014011291 0.034932815 0.0035858485 -0.035588045 0.012372682 0.0045909598 0.026271576 -0.06000308 -0.020684222 0.06849156 -0.037711967 0.006234547 0.032793958 0.061666723 -0.011407244 -0.032413997 0.0047131456 0.011468217 0.027874472 0.03199442 0.05047534 0.039240062 -0.011033414 -0.039549284 -0.018220764 -0.020934775 0.026250241 -0.015389739 0.036441427 -0.004550112 0.03531476 -0.042634975 0.03289095 -0.014948445 -0.03592406 0.033968627 -0.028858602 -0.0016128097 -0.031982183 -0.006714965 0.033108085 0.00762986 -0.020162389 0.017316237 -0.04112048 0.010443173 -0.004459055 -0.02593499 -0.027575653 -0.04378764 -0.02764113 0.02529255 -0.03450626 -0.067194 0.011879896 -0.03992451 0.008440751 -0.0292048 0.019681484 0.012086008 -0.021606186 -0.06767036 -0.0047385576 -0.011151246 -0.015046401 -0.023042027 -0.0018719143 -0.033665407 -0.008859307 0.00026292866 -0.017538756 0.0087146675 -0.018889124 -0.017001323 0.03686892 0.004237674 -0.018953882 -0.0219232 -0.002752874 -0.06549801 -0.047111616 0.0039572916 -0.0516739 -0.04155545 -0.013461186 -0.024524529 0.0349614 -0.009300429 -0.01865877 -0.0048494027 -0.007209172 -0.0038469173 -0.019660795 0.02435241 -0.033099275 0.0076598707 -0.04265499 0.004004933 -0.030226909 -0.049058013 -0.05800234 -0.014821983 0.033364024 0.007942195 -0.016804153 -0.030876238 -0.02728686 -0.07070765 -0.028611634 -0.02974283 -0.0251355 -0.028083637 -0.029383617 -0.01850111 0.02795769 0.008701599 0.0091442 0.03365704 -0.0732291 -0.033391386 -0.016381368 -0.009852436 -0.03525611 0.024309995 0.024166057 -0.034118053 0.020051245 0.018475007 0.019873818 -0.018780971 0.011908578 -0.04135478 -0.047117967 -0.025927411 -0.050986342 0.016771896 -0.038667627 -0.0077283517 -0.008104131 0.024449524 -0.0038977114 -0.057830926 0.009088874 -0.015595078 -0.031233866 -0.052365996 -0.0011686313 -0.015395975 -0.063239776 0.032366678 -0.029909857 0.016890746 -0.055698037 0.03748692 -0.019195193 -0.058348365 -0.06806022 -0.011520023 -0.030592281 -0.0014038136 0.018931096 -0.030712217 -0.024503319 -0.009364731 -0.009762221 -0.057072937 -0.061443012 -0.06255483 -0.0008516461 0.0021455786 0.0014084836 -0.015103134 -0.04842369 -0.050886147 -0.048547097 -0.015819909 0.005174462 0.018451283 -0.025146056 -0.035500977 -0.049191605 -0.031076778 -0.038446832 -0.03850873 -0.016664749 0.00569409 -0.046388816 -0.058728565 0.0124403285 0.0055117914 -0.0069103884 -0.060590103 -0.0048510754 0.0058389134 0.034108274 -0.0020448526 -0.033144757 -0.04931207 -0.0141965 -0.034249797 -0.021896621 -0.025830762 -0.030639822 -0.0417179 0.004289302 0.012917457 -0.017460266 -0.0016475521 0.0002989131 0.008061947 -0.03508258 -0.024510207 -0.012289575 -0.03963606 -0.04177587 -0.03230709 0.0015567468 -0.044916186 -0.012880661 0.027405908 -0.031843085 -0.013153942 -0.018833293 0.0060024895 -0.02834203 0.0022652633 0.033662483 -0.004017229 0.027298013 -0.021949112 -0.019777784 -0.024449287 -0.013068274 -0.039348677 -0.028749645 -0.03845086 -0.03470505 0.00068961456 -0.0026271606 0.032409716 -0.036507804 -0.027697217 0.0031530373 0.0071509723 0.028990638 -0.03230757 -0.008466415 0.0028582178 -0.013375688 0.00062984927 -0.03148108 -0.035972573 -0.0080516795 -0.039691698 0.036702782 -0.009378605 0.013357017 -0.007927161 -0.007421558 0.00015132395 -0.012387097 -0.02547773 -0.059826586 0.004224863 0.004552738 -0.04094791 -0.004780837 -0.049390275 0.006283567 -0.026477613 -0.0034939556 -0.028396018 -0.051791262 -0.025315898 -0.013594146 0.024543155 0.028250093 0.018943796 0.015308769 -0.044758167 0.0028441546 -0.0106503805 -0.019754572 -0.020489357 -0.050631776 -0.047227353 0.016200136 0.017108893 0.036277324 -0.050646402 -0.048651583 0.006270333 0.006017114 -0.009064729 0.016637849 -0.020737415 -0.047705624 -0.0043835207 0.010164368 0.00919362 -0.03768326 -0.04354763 0.001516354 -0.016669707 -0.049680047 0.022878597 0.03294266 0.01937339 -0.03394495 -0.036555134 -0.0074139624 -0.044856858 0.021773616 0.012612968 -0.04817045 -0.02523667 -0.024849365 -0.034585714 0.031260066 -0.021960912 -0.048298996 0.014605372 -0.058878604 0.022258507 0.030030368 -0.02451014 0.02127211 -0.03281565 -0.026017139 0.016890712 -0.03858302 -0.031345442 0.03498445 0.009386586 0.001990434 0.0045486013 -0.014487178 -0.019456415 -0.039605603 -0.038878083 -0.0016356967 0.015924482 -0.0264201 0.023764001 -0.029503131 0.023923995 -0.012169343 -0.049513415 -0.044045337 -0.026240503 -0.008824283 0.013047032 0.012779138 -0.0067452504 0.02098386 0.03254148 -0.023135811 0.02168017 -0.038023464 -0.016232282 0.0011350267 -0.0389478 0.02032292 0.0164651 0.016247366 0.017016416 -0.020877305 0.028423501 -0.027926499 0.002764141 -0.027469493 0.015905976 -0.01771595 -0.040434424 -0.014513468 -0.05436306 -0.043793067 0.033871874 0.014800113 0.0004753576 0.0005304812 -0.024611434 -0.044201825 -0.0461942 -0.056941077 0.016594097 -0.034879364 -0.042171713 -0.0032290188 -0.00055318617 0.02200475 0.038590644 -0.044205025 0.027953763 -0.022935651 -0.038580086 -0.059848856 0.0058797067 -0.01813859 -0.016306963 0.010834545 -0.022067487 0.029602157 -0.0314351 0.023488708 0.037324697 0.015850289 -0.022055518 0.009381794 0.032159686 -0.03121775 0.037796963 -0.009200301 0.016244885 -0.045494918 -0.00040107477 0.03046434 -0.019631062 -0.023760287 -0.009756356 0.004898557 -0.02659848 0.01568587 0.014842985 0.019801648 0.011844248 -0.005066721 -0.04310291 0.014494714 0.013646494 0.040750887 0.005791497 -0.014510622 0.016498543 -0.011113119 -0.05662476 0.007408999 -0.037409622 -0.0088945385 0.028037757 0.008582394 0.011953067 -0.017521314 -0.024458233 -0.018426687 -0.06382348 -0.040887456 -0.041007526 0.03345427 -0.046378843 0.033780605 -0.050590865 -0.043252885 -0.023088584 0.010801696 0.003914106 0.018762551 -0.010157521 0.02451341 0.030827707 -0.04612901 -0.010527333 -0.03888703 0.0033819962 -0.002009967 -0.022835882 -0.02011942 0.031131703 -0.04622741 -0.048302144 -0.044918556 -0.045066033 -0.045987893 -0.06610017 -0.002330487 -0.016733276 -0.012165849 -0.031569425 0.016659578 -0.048308153 -0.029226085 0.00920409 -0.02618256 -0.026696512 0.0059506847 0.0050962716 -0.02891444 0.032989334 -0.042196743 -0.029603409 -0.003964844 0.0043498436 -0.035211843 0.020625148 -0.0030903076 0.025781196 0.0015385018 -0.05315939 0.015685475 -0.009082483 -0.0074518234 -0.005073428 -0.04197057 -0.007867727 0.011402658 0.022484193 -0.026382392 -0.014324572 -0.010297161 -0.01643461 -0.06573574 -0.040389232 -0.0387178 0.00671826 -0.024462035 -0.052861687 -0.059129763 -0.039366182 -0.018258939 0.016967284 0.0032497644 -0.0629565 0.014450249 -0.03727451 0.014405517 0.022422703 -0.041561514 -0.05125794 -0.054018714 5.2290332e-05 0.0074300277 0.01737067 -0.029667256 -0.023049505 -0.009453633 -0.026164459 -0.037671693 -0.02649666 -0.04227334 0.005449736 -0.04378171 0.024469286 -0.010575637 0.0033168795 0.013917464 -0.06757048 -0.023164233 0.03624921 -0.048459318 -0.030613817 -0.055365793 -0.06455763 -0.05207477 -0.041674826 -0.006718825 0.0127371 0.01206845 -0.01830125 -0.008398255 -0.030737404 -0.0024409448 0.024282822 -0.008769138 0.0031693585 0.019109366 -0.029799232 0.010266055 0.0100722425 -0.0031475334 -0.0430251 -0.03448045 0.032279838 -0.026726948 0.013559216 0.05042475 0.08089862 0.06788041 0.023690293 0.13140836 -0.055478074 -0.08193636 0.0080450745 0.05438584 0.09242645 0.14395371 0.0253267 -0.051628415 -0.1408502 -0.08917022 0.051823437 0.01902406 0.028348729 0.063960955 0.029431775 0.087975 0.0390382 0.087999925 -0.0646374 0.13076143 0.043387774 0.050841235 -0.087552555 -0.007198863 0.13971154 0.11685239 0.02183966 -0.026462052 -0.011866064 -0.0056877676 0.07393322 0.010851541 -0.09020435 -0.020130293 0.09366896 0.19941185 -0.036814917 -0.14439526 0.028100614 0.1732649 -0.0030000869 -0.1260307 -0.09347857 0.06726561 -0.005813094 -0.042968377 0.039329965 -0.02759261 0.0052796546 -0.024739707 -0.0039006881 0.016278598 0.018676704 -0.008072023 0.015762813 0.037589993 0.004611114 0.011631433 0.03505848 -0.013398399 0.0011955614 0.015324888 0.02626297 -0.020047884 -0.030096328 -0.028029384 0.041534588 -0.013880277 -0.010322493 -0.035150852 -0.028980622 0.03801618 -0.17107126 -0.055649634 0.09150572 0.13884705 0.032417487 0.0131330425 -0.055720214 -0.04200493 0.05948393 0.019977724 0.07388082 -0.086398095 -0.2304752 0.1435117 0.16152929 0.011878247 0.12350237 -0.18686666 0.09001357 0.024249455 -0.063017 0.010288035 -0.049378235 -0.052996304 0.00088329875 -0.061823763 -0.08544488 -0.017625654 -0.008837765 -0.09595464 -0.15588261 -0.112823024 -0.01965409 0.018151544 -0.07493117 -0.1114472 -0.23797424 0.018291295 0.028918682 0.044293635 0.099825546 0.18110445 0.11930797 0.08025722 -0.036928106 -0.006104853 0.04428687 -0.08963995 0.016962538 -0.06038816 0.028263506 0.01863225 0.10011548 0.05814053 -0.062362574 -0.0667625 0.043028243 -0.03170687 0.031008413 -0.030188503 -0.118039355 -0.18662469 -0.049609344 -0.018771332 0.0151755605 0.08237239 0.16861974 0.03271247 0.11208024 0.023609389 0.0845437 0.04514266 -0.08021161 -0.023334399 -0.032310277 -0.08158895 0.051839124 0.2050263 0.11808273 -0.023902522 -0.043185126 -0.137014 0.22357477 0.024529457 -0.06874311 -0.03915155 -0.104654215 -0.08433923 0.014973379 -0.0049604075 -0.03788712 -0.0705928 0.043527354 -0.0008087177 -0.08947597 -0.15000531 -0.030152638 0.0008833423 0.03964279 0.082537584 0.19159564 0.059722967 -0.09508093 -0.10876628 0.07220302 0.106352635 0.030194093 -0.006437234 -0.060372695 -0.10584961 -0.09331659 0.007979533 -0.039104342 -0.0020647286 0.050009903 -0.024299867 -0.035355292 -0.033651453 -0.09822972 -0.02226262 0.06047022 0.094690345 -0.057523265 0.0012492711 -0.030631473 -0.09735888 -0.1814976 0.055740017 0.081733674 -0.044351477 -0.0075521264 0.014874772 0.10231156 -0.017618626 -0.05444725 0.0044949073 -0.0026565539 -0.067976505 0.03365905 0.073543504 0.15861467 0.19359294 0.1292687 0.003350764 -0.023202593 0.059098303 -0.06685535 0.03538617 -0.011665434 -0.053665124 -0.008857874 -0.13535988 0.08907205 0.03855803 0.02181657 0.04153669 -0.04149415 0.096127525 0.18685806 0.029591275 0.0626657 0.028200181 0.029240452 0.07693282 0.05081419 0.09406227 0.022048272 0.09130482 0.12241774 0.010596885 -0.029822245 0.05616827 0.06069412 0.0071581705 0.023897396 -0.016082834 -0.1096436 -0.07106845 -0.0274268 -0.16909899 0.076313674 0.038734365 -0.29714447 -0.41029087 -0.2712657 0.22545916 -0.056449976 -0.08821595 -0.19704576 -0.25329024 0.11368399 0.18900521 0.041444436 -0.027063867 -0.037035808 0.21074466 0.075325355 0.027853742 -0.032109138 0.12003581 0.087125525 0.023636835 -0.024655646 -0.08150629 0.0013018867 0.019313384 -0.004623807 -0.05537842 0.013784214 -0.002484201 -0.0047027124 -0.018138994 0.056162335 0.11648332 0.052686375 -0.059750613 -0.10778256 -0.0601 -0.06491775 -0.020748893 -0.036239997 0.06221678 -0.054050293 0.010907067 0.030728322 0.024569267 -0.12144895 0.08833933 0.06885093 -0.06361742 -0.11877591 -0.08575396 -0.036938187 0.074398115 0.15489286 -0.10703834 -0.14115302 -0.16778035 -0.10212634 0.01921558 -0.029289996 0.07949093 -0.052652586 -0.009525443 0.08020245 0.1438502 0.19237953 0.05378558 0.14375836 0.22004052 0.18535236 0.041259374 -0.10280478 -0.020024318 0.006811724 -0.013494529 -0.031370815 -0.12072447 0.027999284 0.06720569 -0.15741727 -0.15361173 -0.11339554 0.01063743 0.03686892 -0.03147871 0.11556455 0.03850862 -0.011200715 0.10556999 0.024341466 -0.030999137 0.10882327 0.02314999 0.024585934 -0.1629384 -0.21547906 -0.08188819 0.021951433 0.02105832 -0.04377342 -0.13226855 -0.043286737 0.07147976 -0.05997074 -0.10883232 -0.05670829 0.047152992 -0.056792866 -0.017036973 -0.069532916 0.010771328 0.0509917 0.015742185 0.10405377 0.095249 0.065701015 0.02762575 0.007723324 0.04459878 0.07351335 0.14205155 -0.15685138 -0.14914118 -0.038312376 0.11641704 0.13758847 -0.1080275 -0.016919862 0.044690944 -0.031045211 -0.16929662 -0.18407112 -0.059188288 -0.019183205 0.010329178 -0.069262326 -0.08486262 -0.019316828 -0.08449101 0.021417417 -0.002055932 -0.011853204 -0.09581389 -0.22997667 -0.109157324 -0.13954438 -0.08752975 0.022428779 0.06012138 0.093541265 0.10871686 -0.033707384 0.0072147273 0.1416012 -0.006852272 0.14874344 -0.07777091 -0.11368144 0.15252303 0.088823065 0.13399453 0.020409586 0.013686617 0.04543546 0.006875444 0.038053032 0.0950633 0.30542442 0.11091961 -0.030707734 -0.08668063 0.069887936 0.092977114 -0.011998397 -0.07024609 -0.03829897 -0.035359185 -0.04517073 0.047639985 -0.041030526 -0.01835026 0.06261565 -0.029705683 0.013805463 -0.09946556 -0.01897603 0.046390615 -0.0678051 -0.09584617 -0.08801 -0.06395215 -0.007310629 0.014241999 -0.0032231468 0.028978521 -0.036067877 -0.017530276 -0.0020961624 -0.025717115 0.036634564 -0.0070454883 -0.026298024 -0.007254469 0.016096147 0.017128017 0.026826862 -0.008195764 -0.007886852 -0.016738739 -0.01928534 -0.014210163 -0.016660733 -0.026788961 -0.040472057 -0.036659136 0.017407384 -0.23693813 -0.040930882 0.1998062 0.0782324 0.14453459 0.012450219 0.111875676 0.12040545 0.014313399 0.12897281 -0.16736382 -0.020944182 -0.066746116 0.090013415 -0.037051916 -0.28631464 -0.00544437 0.0041797645 0.060968246 -0.28077674 -0.02071593 0.055002954 0.12062785 -0.15690668 0.02581646 -0.1326576 -0.006212188 0.05835625 -0.15440446 -0.06052759 -0.009075938 0.035156295 0.07045407 0.020770177 0.15760966 -0.057746954 0.030377036 0.13541839 0.014725189 0.10095196 -0.002047856 0.0033636396 0.13340326 0.053873632 0.14833236 0.0011343792 -0.009132914 0.06826973 0.041222405 0.07195677 -0.030485991 -0.033157606 0.018385932 -0.138713 -0.17342739 -0.08681881 -0.025397716 -0.01543978 -0.0024136708 0.1401739 0.08029459 0.0010778303 -0.035081442 0.039234746 0.19561385 -0.0074425694 -0.03478013 -0.0042290487 0.06843054 0.14540212 -0.073023096 -0.0062854285 0.022070324 0.04594556 0.0049017547 0.022769075 -0.025881007 -0.18149963 -0.038777 -0.16413134 0.05177975 0.039620254 0.14058673 0.08346151 0.059294567 0.08388933 0.043119308 0.02137738 0.0386284 0.11246502 0.09053364 -0.0097796535 0.07814126 0.017169684 0.07515352 -0.27048028 -0.08616518 -0.025891496 -0.05191268 0.14743537 -0.021381944 -0.1335539 -0.2847751 -0.07066876 0.024647504 -0.00863203 0.00020345811 -0.06230599 -0.043980207 -0.15705521 -0.051880676 0.044802677 -0.026267141 0.05842077 0.035531934 0.036314655 -0.08034568 0.005734984 0.022015154 0.06311903 0.010045649 -0.12771957 -0.1201645 -0.008972901 0.117661804 0.15258822 -0.04526881 -0.010695904 0.1078183 0.026575597 0.0642863 -0.06223819 0.12200063 -0.0039272937 -0.05979519 0.061291225 0.013810529 0.0014290339 -0.042944882 -0.08070897 0.0018406904 0.12598248 0.0413006 -0.002638668 -0.09880738 0.029966824 0.08110345 0.07105748 -0.08527195 0.016270362 -0.21223068 -0.06766802 0.08999887 0.106125295 0.15968773 -0.035228558 0.07571631 0.090534166 -0.0030734444 0.20305622 -0.01535227 0.07353613 -0.01507888 0.03137626 -0.04249963 -0.077536635 0.22352438 0.1928447 0.12857792 0.009962588 0.043826472 0.16711253 0.17314953 0.21017732 0.08395399 0.16306186 0.1081282 -0.07155227 -0.060336255 -0.089083984 0.115937494 -0.14914432 -0.100826405 -0.09408097 -0.13857092 0.08743125 -0.08513929 -0.082575895 -0.29983908 -0.15174526 0.10239796 -0.004991467 0.23602436 0.012531816 -0.08195438 0.04971759 0.052725393 0.04274049 -0.096730426 -0.14838827 -0.14634721 -0.1899303 -0.03190864 -0.15544929 0.11184561 -0.02166251 0.0025876807 0.054537445 -0.0075377706 0.022294756 -0.08300957 -0.040061872 0.00551379 0.055292264 -0.11219304 -0.006900879 -0.021227466 0.024692189 0.04326616 0.022498976 -0.08752141 0.028796425 0.08966396 0.11942991 0.083506845 -0.09633805 -0.0327306 -0.020337358 0.033889774 0.002942255 -0.16167542 -0.10030119 0.05833618 0.049728524 0.10566175 -0.0439098 -0.08419513 0.10364592 0.10638687 0.010417361 -0.027490431 -0.06948399 0.12392979 0.03661553 0.02015496 0.059610307 0.08005987 0.045509167 0.03289468 -0.016923433 -0.016342022 -0.10456615 -0.208971 -0.16252114 -0.22826083 -0.09467486 -0.070201024 -0.09672894 -0.045302868 0.010091911 -0.17103988 -0.19868787 -0.04845509 -0.021609992 0.033837017 -0.0037110432 -0.086483166 0.005434451 0.04413153 0.15588897 0.06743569 -0.06166384 -0.04544556 0.027420187 0.12895404 -0.08641261 -0.07133466 -0.025360119 0.14291245 0.123614274 0.02956689 -0.053158965 -0.06709324 0.020811537 0.081918284 -0.032031726 -0.09494975 -0.042775642 -0.0740438 -0.09596155 -0.032327555 0.06737119 0.088074885 0.03507386 0.21552826 0.116351075 0.047371626 0.09510309 0.054601837 0.0438785 -0.028427768 -0.11674127 -0.15385124 -0.0839514 -0.18278737 -0.18590567 -0.20112564 -0.051578935 0.18370983 0.098460995 -0.0148916915 0.024009109 0.18812336 0.01821018 0.08539035 0.14386685 -0.0032571459 -0.06275895 0.07202626 0.080007404 -0.099823825 -0.1190844 -0.036296807 -0.13042521 -0.003551732 -0.063136674 -0.075033315 -0.074231505 0.07439833 0.007758573 0.042444598 0.06532497 -0.06341872 -0.15573381 -0.026790183 0.010727318 -0.034172308 0.031490624 0.074570574 -0.051641107 0.104207255 0.03375571 -0.06358762 -0.0056233513 0.06397956 0.0127027165 